digraph Tree {
node [shape=box, style="filled, rounded", color="black", fontname=helvetica] ;
edge [fontname=helvetica] ;
0 [label="gene_SF3B1 <= 0.06\ngini = 0.89\nsamples = 831\nvalue = [92.33, 92.33, 92.33, 92.33, 92.33, 92.33, 92.33, 92.33\n92.33]\nclass = 4", fillcolor="#ffffff"] ;
1 [label="gene_IDH2 <= 0.86\ngini = 0.89\nsamples = 827\nvalue = [92.33, 92.33, 92.33, 92.33, 92.33, 92.33, 92.33, 92.33\n51.3]\nclass = 4", fillcolor="#ffffff"] ;
0 -> 1 [labeldistance=2.5, labelangle=45, headlabel="True"] ;
2 [label="21 <= 0.13\ngini = 0.88\nsamples = 824\nvalue = [92.33, 92.33, 92.33, 92.33, 92.33, 92.33, 92.33, 55.4\n41.04]\nclass = 4", fillcolor="#ffffff"] ;
1 -> 2 ;
3 [label="gene_BRCA2 <= 0.7\ngini = 0.85\nsamples = 501\nvalue = [59.82, 51.48, 79.74, 45.63, 81.74, 68.25, 53.15, 0.0\n0.0]\nclass = 5", fillcolor="#feffff"] ;
2 -> 3 ;
4 [label="72 <= 0.73\ngini = 0.85\nsamples = 472\nvalue = [55.92, 51.48, 79.74, 45.09, 77.2, 42.82, 53.15, 0.0\n0.0]\nclass = 3", fillcolor="#fefffd"] ;
3 -> 4 ;
5 [label="93 <= 0.57\ngini = 0.86\nsamples = 418\nvalue = [52.67, 46.58, 41.97, 41.34, 45.41, 38.81, 51.99, 0.0\n0.0]\nclass = 1", fillcolor="#fffffe"] ;
4 -> 5 ;
6 [label="gene_BRCA1 <= 0.67\ngini = 0.83\nsamples = 196\nvalue = [37.06, 16.34, 8.39, 28.99, 18.16, 20.07, 13.97, 0.0\n0.0]\nclass = 1", fillcolor="#fdf6f1"] ;
5 -> 6 ;
7 [label="24 <= 0.46\ngini = 0.82\nsamples = 167\nvalue = [32.51, 16.34, 8.39, 24.69, 7.57, 10.71, 13.97, 0.0\n0.0]\nclass = 1", fillcolor="#fdf4ee"] ;
6 -> 7 ;
8 [label="83 <= 0.42\ngini = 0.76\nsamples = 23\nvalue = [1.95, 0.0, 8.39, 5.91, 1.51, 4.01, 1.16, 0.0, 0.0]\nclass = 3", fillcolor="#e8fbe2"] ;
7 -> 8 ;
9 [label="84 <= 0.69\ngini = 0.71\nsamples = 16\nvalue = [0.65, 0.0, 0.0, 4.29, 1.51, 4.01, 1.16, 0.0, 0.0]\nclass = 4", fillcolor="#f8fefa"] ;
8 -> 9 ;
10 [label="71 <= 0.2\ngini = 0.51\nsamples = 8\nvalue = [0.0, 0.0, 0.0, 3.22, 1.51, 0.0, 0.39, 0.0, 0.0]\nclass = 4", fillcolor="#a1f3c3"] ;
9 -> 10 ;
11 [label="gini = 0.59\nsamples = 4\nvalue = [0.0, 0.0, 0.0, 1.07, 1.51, 0.0, 0.39, 0.0, 0.0]\nclass = 5", fillcolor="#d1f6f9"] ;
10 -> 11 ;
12 [label="gini = 0.0\nsamples = 4\nvalue = [0.0, 0.0, 0.0, 2.15, 0.0, 0.0, 0.0, 0.0, 0.0]\nclass = 4", fillcolor="#39e581"] ;
10 -> 12 ;
13 [label="89 <= 0.54\ngini = 0.57\nsamples = 8\nvalue = [0.65, 0.0, 0.0, 1.07, 0.0, 4.01, 0.78, 0.0, 0.0]\nclass = 6", fillcolor="#94abf1"] ;
9 -> 13 ;
14 [label="gini = 0.66\nsamples = 4\nvalue = [0.65, 0.0, 0.0, 0.54, 0.0, 0.0, 0.78, 0.0, 0.0]\nclass = 7", fillcolor="#f3ecfd"] ;
13 -> 14 ;
15 [label="gini = 0.21\nsamples = 4\nvalue = [0.0, 0.0, 0.0, 0.54, 0.0, 4.01, 0.0, 0.0, 0.0]\nclass = 6", fillcolor="#5379e8"] ;
13 -> 15 ;
16 [label="36 <= 0.8\ngini = 0.42\nsamples = 7\nvalue = [1.3, 0.0, 8.39, 1.61, 0.0, 0.0, 0.0, 0.0, 0.0]\nclass = 3", fillcolor="#93ed74"] ;
8 -> 16 ;
17 [label="gini = 0.13\nsamples = 3\nvalue = [0.65, 0.0, 8.39, 0.0, 0.0, 0.0, 0.0, 0.0, 0.0]\nclass = 3", fillcolor="#70e748"] ;
16 -> 17 ;
18 [label="gini = 0.41\nsamples = 4\nvalue = [0.65, 0.0, 0.0, 1.61, 0.0, 0.0, 0.0, 0.0, 0.0]\nclass = 4", fillcolor="#89efb4"] ;
16 -> 18 ;
19 [label="93 <= 0.52\ngini = 0.78\nsamples = 144\nvalue = [30.56, 16.34, 0.0, 18.79, 6.05, 6.69, 12.8, 0.0, 0.0]\nclass = 1", fillcolor="#fbebdf"] ;
7 -> 19 ;
20 [label="60 <= 0.09\ngini = 0.75\nsamples = 80\nvalue = [20.81, 5.72, 0.0, 13.96, 6.05, 5.35, 2.72, 0.0, 0.0]\nclass = 1", fillcolor="#fbeade"] ;
19 -> 20 ;
21 [label="gene_TP53 <= 0.24\ngini = 0.56\nsamples = 10\nvalue = [0.65, 4.09, 0.0, 1.61, 0.0, 0.0, 0.39, 0.0, 0.0]\nclass = 2", fillcolor="#ecf29f"] ;
20 -> 21 ;
22 [label="42 <= 0.79\ngini = 0.32\nsamples = 7\nvalue = [0.0, 4.09, 0.0, 0.54, 0.0, 0.0, 0.39, 0.0, 0.0]\nclass = 2", fillcolor="#dfea62"] ;
21 -> 22 ;
23 [label="gini = 0.64\nsamples = 3\nvalue = [0.0, 0.82, 0.0, 0.54, 0.0, 0.0, 0.39, 0.0, 0.0]\nclass = 2", fillcolor="#f6f9d1"] ;
22 -> 23 ;
24 [label="gini = -0.0\nsamples = 4\nvalue = [0.0, 3.27, 0.0, 0.0, 0.0, 0.0, 0.0, 0.0, 0.0]\nclass = 2", fillcolor="#d7e539"] ;
22 -> 24 ;
25 [label="gini = 0.47\nsamples = 3\nvalue = [0.65, 0.0, 0.0, 1.07, 0.0, 0.0, 0.0, 0.0, 0.0]\nclass = 4", fillcolor="#b1f5cd"] ;
21 -> 25 ;
26 [label="30 <= 0.91\ngini = 0.72\nsamples = 70\nvalue = [20.16, 1.63, 0.0, 12.35, 6.05, 5.35, 2.33, 0.0, 0.0]\nclass = 1", fillcolor="#f9e3d3"] ;
20 -> 26 ;
27 [label="42 <= 0.81\ngini = 0.68\nsamples = 64\nvalue = [18.86, 1.63, 0.0, 12.35, 4.54, 1.34, 2.33, 0.0, 0.0]\nclass = 1", fillcolor="#f9e2d2"] ;
26 -> 27 ;
28 [label="47 <= 0.14\ngini = 0.68\nsamples = 25\nvalue = [3.9, 0.82, 0.0, 7.52, 3.03, 0.0, 0.78, 0.0, 0.0]\nclass = 4", fillcolor="#c4f7d9"] ;
27 -> 28 ;
29 [label="19 <= 0.11\ngini = 0.74\nsamples = 16\nvalue = [3.9, 0.82, 0.0, 2.68, 3.03, 0.0, 0.78, 0.0, 0.0]\nclass = 1", fillcolor="#fcf2ea"] ;
28 -> 29 ;
30 [label="gini = 0.39\nsamples = 4\nvalue = [0.0, 0.0, 0.0, 0.54, 3.03, 0.0, 0.39, 0.0, 0.0]\nclass = 5", fillcolor="#6fe2ec"] ;
29 -> 30 ;
31 [label="91 <= 0.9\ngini = 0.61\nsamples = 12\nvalue = [3.9, 0.82, 0.0, 2.15, 0.0, 0.0, 0.39, 0.0, 0.0]\nclass = 1", fillcolor="#f6d4bb"] ;
29 -> 31 ;
32 [label="66 <= 0.53\ngini = 0.49\nsamples = 9\nvalue = [3.9, 0.82, 0.0, 0.54, 0.0, 0.0, 0.39, 0.0, 0.0]\nclass = 1", fillcolor="#eeae80"] ;
31 -> 32 ;
33 [label="gini = 0.0\nsamples = 5\nvalue = [3.25, 0.0, 0.0, 0.0, 0.0, 0.0, 0.0, 0.0, 0.0]\nclass = 1", fillcolor="#e58139"] ;
32 -> 33 ;
34 [label="gini = 0.73\nsamples = 4\nvalue = [0.65, 0.82, 0.0, 0.54, 0.0, 0.0, 0.39, 0.0, 0.0]\nclass = 2", fillcolor="#fbfdec"] ;
32 -> 34 ;
35 [label="gini = -0.0\nsamples = 3\nvalue = [0.0, 0.0, 0.0, 1.61, 0.0, 0.0, 0.0, 0.0, 0.0]\nclass = 4", fillcolor="#39e581"] ;
31 -> 35 ;
36 [label="gini = 0.0\nsamples = 9\nvalue = [0.0, 0.0, 0.0, 4.83, 0.0, 0.0, 0.0, 0.0, 0.0]\nclass = 4", fillcolor="#39e581"] ;
28 -> 36 ;
37 [label="40 <= 0.82\ngini = 0.59\nsamples = 39\nvalue = [14.96, 0.82, 0.0, 4.83, 1.51, 1.34, 1.55, 0.0, 0.0]\nclass = 1", fillcolor="#f2c09c"] ;
27 -> 37 ;
38 [label="gini = 0.45\nsamples = 3\nvalue = [0.0, 0.0, 0.0, 0.0, 1.51, 0.0, 0.78, 0.0, 0.0]\nclass = 5", fillcolor="#9eecf2"] ;
37 -> 38 ;
39 [label="93 <= 0.48\ngini = 0.52\nsamples = 36\nvalue = [14.96, 0.82, 0.0, 4.83, 0.0, 1.34, 0.78, 0.0, 0.0]\nclass = 1", fillcolor="#f0b88f"] ;
37 -> 39 ;
40 [label="14 <= 0.82\ngini = 0.45\nsamples = 26\nvalue = [12.35, 0.82, 0.0, 2.15, 0.0, 1.34, 0.39, 0.0, 0.0]\nclass = 1", fillcolor="#eda977"] ;
39 -> 40 ;
41 [label="74 <= 0.05\ngini = 0.22\nsamples = 10\nvalue = [5.85, 0.82, 0.0, 0.0, 0.0, 0.0, 0.0, 0.0, 0.0]\nclass = 1", fillcolor="#e99355"] ;
40 -> 41 ;
42 [label="gini = 0.47\nsamples = 3\nvalue = [1.3, 0.82, 0.0, 0.0, 0.0, 0.0, 0.0, 0.0, 0.0]\nclass = 1", fillcolor="#f5d0b5"] ;
41 -> 42 ;
43 [label="gini = 0.0\nsamples = 7\nvalue = [4.55, 0.0, 0.0, 0.0, 0.0, 0.0, 0.0, 0.0, 0.0]\nclass = 1", fillcolor="#e58139"] ;
41 -> 43 ;
44 [label="75 <= 0.54\ngini = 0.55\nsamples = 16\nvalue = [6.5, 0.0, 0.0, 2.15, 0.0, 1.34, 0.39, 0.0, 0.0]\nclass = 1", fillcolor="#f1bc96"] ;
40 -> 44 ;
45 [label="74 <= 0.07\ngini = 0.16\nsamples = 7\nvalue = [3.9, 0.0, 0.0, 0.0, 0.0, 0.0, 0.39, 0.0, 0.0]\nclass = 1", fillcolor="#e88e4d"] ;
44 -> 45 ;
46 [label="gini = -0.0\nsamples = 4\nvalue = [2.6, 0.0, 0.0, 0.0, 0.0, 0.0, 0.0, 0.0, 0.0]\nclass = 1", fillcolor="#e58139"] ;
45 -> 46 ;
47 [label="gini = 0.35\nsamples = 3\nvalue = [1.3, 0.0, 0.0, 0.0, 0.0, 0.0, 0.39, 0.0, 0.0]\nclass = 1", fillcolor="#eda774"] ;
45 -> 47 ;
48 [label="73 <= 0.88\ngini = 0.64\nsamples = 9\nvalue = [2.6, 0.0, 0.0, 2.15, 0.0, 1.34, 0.0, 0.0, 0.0]\nclass = 1", fillcolor="#fcf0e8"] ;
44 -> 48 ;
49 [label="gini = 0.0\nsamples = 3\nvalue = [0.0, 0.0, 0.0, 1.61, 0.0, 0.0, 0.0, 0.0, 0.0]\nclass = 4", fillcolor="#39e581"] ;
48 -> 49 ;
50 [label="3 <= 0.15\ngini = 0.56\nsamples = 6\nvalue = [2.6, 0.0, 0.0, 0.54, 0.0, 1.34, 0.0, 0.0, 0.0]\nclass = 1", fillcolor="#f5ccaf"] ;
48 -> 50 ;
51 [label="gini = 0.5\nsamples = 3\nvalue = [1.3, 0.0, 0.0, 0.0, 0.0, 1.34, 0.0, 0.0, 0.0]\nclass = 6", fillcolor="#f9fbfe"] ;
50 -> 51 ;
52 [label="gini = 0.41\nsamples = 3\nvalue = [1.3, 0.0, 0.0, 0.54, 0.0, 0.0, 0.0, 0.0, 0.0]\nclass = 1", fillcolor="#f0b58b"] ;
50 -> 52 ;
53 [label="77 <= 0.23\ngini = 0.56\nsamples = 10\nvalue = [2.6, 0.0, 0.0, 2.68, 0.0, 0.0, 0.39, 0.0, 0.0]\nclass = 4", fillcolor="#fafefc"] ;
39 -> 53 ;
54 [label="56 <= 0.17\ngini = 0.44\nsamples = 7\nvalue = [1.3, 0.0, 0.0, 2.68, 0.0, 0.0, 0.0, 0.0, 0.0]\nclass = 4", fillcolor="#99f2be"] ;
53 -> 54 ;
55 [label="gini = 0.5\nsamples = 4\nvalue = [1.3, 0.0, 0.0, 1.07, 0.0, 0.0, 0.0, 0.0, 0.0]\nclass = 1", fillcolor="#fae9dc"] ;
54 -> 55 ;
56 [label="gini = 0.0\nsamples = 3\nvalue = [0.0, 0.0, 0.0, 1.61, 0.0, 0.0, 0.0, 0.0, 0.0]\nclass = 4", fillcolor="#39e581"] ;
54 -> 56 ;
57 [label="gini = 0.35\nsamples = 3\nvalue = [1.3, 0.0, 0.0, 0.0, 0.0, 0.0, 0.39, 0.0, 0.0]\nclass = 1", fillcolor="#eda774"] ;
53 -> 57 ;
58 [label="58 <= 0.13\ngini = 0.57\nsamples = 6\nvalue = [1.3, 0.0, 0.0, 0.0, 1.51, 4.01, 0.0, 0.0, 0.0]\nclass = 6", fillcolor="#a2b6f3"] ;
26 -> 58 ;
59 [label="gini = 0.63\nsamples = 3\nvalue = [0.65, 0.0, 0.0, 0.0, 1.51, 1.34, 0.0, 0.0, 0.0]\nclass = 5", fillcolor="#effcfd"] ;
58 -> 59 ;
60 [label="gini = 0.31\nsamples = 3\nvalue = [0.65, 0.0, 0.0, 0.0, 0.0, 2.68, 0.0, 0.0, 0.0]\nclass = 6", fillcolor="#698aeb"] ;
58 -> 60 ;
61 [label="45 <= 0.75\ngini = 0.75\nsamples = 64\nvalue = [9.75, 10.62, 0.0, 4.83, 0.0, 1.34, 10.09, 0.0, 0.0]\nclass = 2", fillcolor="#fefefb"] ;
19 -> 61 ;
62 [label="24 <= 0.59\ngini = 0.5\nsamples = 16\nvalue = [5.85, 0.0, 0.0, 1.07, 0.0, 0.0, 1.94, 0.0, 0.0]\nclass = 1", fillcolor="#f0b88f"] ;
61 -> 62 ;
63 [label="95 <= 0.95\ngini = 0.34\nsamples = 12\nvalue = [5.85, 0.0, 0.0, 1.07, 0.0, 0.0, 0.39, 0.0, 0.0]\nclass = 1", fillcolor="#eb9f67"] ;
62 -> 63 ;
64 [label="gini = 0.61\nsamples = 5\nvalue = [1.3, 0.0, 0.0, 1.07, 0.0, 0.0, 0.39, 0.0, 0.0]\nclass = 1", fillcolor="#fceee4"] ;
63 -> 64 ;
65 [label="gini = 0.0\nsamples = 7\nvalue = [4.55, 0.0, 0.0, 0.0, 0.0, 0.0, 0.0, 0.0, 0.0]\nclass = 1", fillcolor="#e58139"] ;
63 -> 65 ;
66 [label="gini = 0.0\nsamples = 4\nvalue = [0.0, 0.0, 0.0, 0.0, 0.0, 0.0, 1.55, 0.0, 0.0]\nclass = 7", fillcolor="#8139e5"] ;
62 -> 66 ;
67 [label="20 <= 0.75\ngini = 0.73\nsamples = 48\nvalue = [3.9, 10.62, 0.0, 3.76, 0.0, 1.34, 8.15, 0.0, 0.0]\nclass = 2", fillcolor="#fafce6"] ;
61 -> 67 ;
68 [label="13 <= 0.14\ngini = 0.73\nsamples = 35\nvalue = [1.95, 4.09, 0.0, 3.76, 0.0, 1.34, 7.37, 0.0, 0.0]\nclass = 7", fillcolor="#e2d2f9"] ;
67 -> 68 ;
69 [label="51 <= 0.74\ngini = 0.64\nsamples = 23\nvalue = [1.3, 0.82, 0.0, 1.61, 0.0, 1.34, 6.21, 0.0, 0.0]\nclass = 7", fillcolor="#c3a1f3"] ;
68 -> 69 ;
70 [label="59 <= 0.91\ngini = 0.73\nsamples = 8\nvalue = [0.65, 0.0, 0.0, 1.61, 0.0, 1.34, 1.16, 0.0, 0.0]\nclass = 4", fillcolor="#effdf5"] ;
69 -> 70 ;
71 [label="gini = 0.0\nsamples = 3\nvalue = [0.0, 0.0, 0.0, 0.0, 0.0, 0.0, 1.16, 0.0, 0.0]\nclass = 7", fillcolor="#8139e5"] ;
70 -> 71 ;
72 [label="gini = 0.63\nsamples = 5\nvalue = [0.65, 0.0, 0.0, 1.61, 0.0, 1.34, 0.0, 0.0, 0.0]\nclass = 4", fillcolor="#e7fcf0"] ;
70 -> 72 ;
73 [label="96 <= 0.9\ngini = 0.37\nsamples = 15\nvalue = [0.65, 0.82, 0.0, 0.0, 0.0, 0.0, 5.04, 0.0, 0.0]\nclass = 7", fillcolor="#a16cec"] ;
69 -> 73 ;
74 [label="gini = 0.5\nsamples = 3\nvalue = [0.0, 0.82, 0.0, 0.0, 0.0, 0.0, 0.78, 0.0, 0.0]\nclass = 2", fillcolor="#fdfef5"] ;
73 -> 74 ;
75 [label="13 <= 0.11\ngini = 0.23\nsamples = 12\nvalue = [0.65, 0.0, 0.0, 0.0, 0.0, 0.0, 4.27, 0.0, 0.0]\nclass = 7", fillcolor="#9457e9"] ;
73 -> 75 ;
76 [label="gini = -0.0\nsamples = 9\nvalue = [0.0, 0.0, 0.0, 0.0, 0.0, 0.0, 3.49, 0.0, 0.0]\nclass = 7", fillcolor="#8139e5"] ;
75 -> 76 ;
77 [label="gini = 0.5\nsamples = 3\nvalue = [0.65, 0.0, 0.0, 0.0, 0.0, 0.0, 0.78, 0.0, 0.0]\nclass = 7", fillcolor="#ebdffb"] ;
75 -> 77 ;
78 [label="13 <= 0.15\ngini = 0.67\nsamples = 12\nvalue = [0.65, 3.27, 0.0, 2.15, 0.0, 0.0, 1.16, 0.0, 0.0]\nclass = 2", fillcolor="#f6f9d3"] ;
68 -> 78 ;
79 [label="27 <= 0.81\ngini = 0.37\nsamples = 6\nvalue = [0.0, 3.27, 0.0, 0.54, 0.0, 0.0, 0.39, 0.0, 0.0]\nclass = 2", fillcolor="#e1ec6b"] ;
78 -> 79 ;
80 [label="gini = 0.0\nsamples = 3\nvalue = [0.0, 2.45, 0.0, 0.0, 0.0, 0.0, 0.0, 0.0, 0.0]\nclass = 2", fillcolor="#d7e539"] ;
79 -> 80 ;
81 [label="gini = 0.64\nsamples = 3\nvalue = [0.0, 0.82, 0.0, 0.54, 0.0, 0.0, 0.39, 0.0, 0.0]\nclass = 2", fillcolor="#f6f9d1"] ;
79 -> 81 ;
82 [label="39 <= 0.54\ngini = 0.61\nsamples = 6\nvalue = [0.65, 0.0, 0.0, 1.61, 0.0, 0.0, 0.78, 0.0, 0.0]\nclass = 4", fillcolor="#b6f5d0"] ;
78 -> 82 ;
83 [label="gini = 0.48\nsamples = 3\nvalue = [0.0, 0.0, 0.0, 0.54, 0.0, 0.0, 0.78, 0.0, 0.0]\nclass = 7", fillcolor="#d8c2f7"] ;
82 -> 83 ;
84 [label="gini = 0.47\nsamples = 3\nvalue = [0.65, 0.0, 0.0, 1.07, 0.0, 0.0, 0.0, 0.0, 0.0]\nclass = 4", fillcolor="#b1f5cd"] ;
82 -> 84 ;
85 [label="55 <= 0.1\ngini = 0.45\nsamples = 13\nvalue = [1.95, 6.54, 0.0, 0.0, 0.0, 0.0, 0.78, 0.0, 0.0]\nclass = 2", fillcolor="#e6ef83"] ;
67 -> 85 ;
86 [label="63 <= 0.74\ngini = 0.58\nsamples = 6\nvalue = [1.95, 1.63, 0.0, 0.0, 0.0, 0.0, 0.39, 0.0, 0.0]\nclass = 1", fillcolor="#fbeee4"] ;
85 -> 86 ;
87 [label="gini = 0.31\nsamples = 3\nvalue = [0.0, 1.63, 0.0, 0.0, 0.0, 0.0, 0.39, 0.0, 0.0]\nclass = 2", fillcolor="#e0eb68"] ;
86 -> 87 ;
88 [label="gini = -0.0\nsamples = 3\nvalue = [1.95, 0.0, 0.0, 0.0, 0.0, 0.0, 0.0, 0.0, 0.0]\nclass = 1", fillcolor="#e58139"] ;
86 -> 88 ;
89 [label="65 <= 0.33\ngini = 0.14\nsamples = 7\nvalue = [0.0, 4.9, 0.0, 0.0, 0.0, 0.0, 0.39, 0.0, 0.0]\nclass = 2", fillcolor="#dae749"] ;
85 -> 89 ;
90 [label="gini = 0.31\nsamples = 3\nvalue = [0.0, 1.63, 0.0, 0.0, 0.0, 0.0, 0.39, 0.0, 0.0]\nclass = 2", fillcolor="#e0eb68"] ;
89 -> 90 ;
91 [label="gini = -0.0\nsamples = 4\nvalue = [0.0, 3.27, 0.0, 0.0, 0.0, 0.0, 0.0, 0.0, 0.0]\nclass = 2", fillcolor="#d7e539"] ;
89 -> 91 ;
92 [label="64 <= 0.27\ngini = 0.71\nsamples = 29\nvalue = [4.55, 0.0, 0.0, 4.29, 10.6, 9.37, 0.0, 0.0, 0.0]\nclass = 5", fillcolor="#f2fcfd"] ;
6 -> 92 ;
93 [label="49 <= 0.95\ngini = 0.61\nsamples = 20\nvalue = [4.55, 0.0, 0.0, 2.68, 10.6, 1.34, 0.0, 0.0, 0.0]\nclass = 5", fillcolor="#adeef4"] ;
92 -> 93 ;
94 [label="95 <= 0.93\ngini = 0.56\nsamples = 14\nvalue = [1.95, 0.0, 0.0, 2.15, 9.08, 1.34, 0.0, 0.0, 0.0]\nclass = 5", fillcolor="#90e9f0"] ;
93 -> 94 ;
95 [label="0 <= 0.85\ngini = 0.35\nsamples = 10\nvalue = [1.95, 0.0, 0.0, 0.54, 9.08, 0.0, 0.0, 0.0, 0.0]\nclass = 5", fillcolor="#6ce1ec"] ;
94 -> 95 ;
96 [label="gini = 0.15\nsamples = 5\nvalue = [0.0, 0.0, 0.0, 0.54, 6.05, 0.0, 0.0, 0.0, 0.0]\nclass = 5", fillcolor="#4bdbe7"] ;
95 -> 96 ;
97 [label="gini = 0.48\nsamples = 5\nvalue = [1.95, 0.0, 0.0, 0.0, 3.03, 0.0, 0.0, 0.0, 0.0]\nclass = 5", fillcolor="#b9f1f6"] ;
95 -> 97 ;
98 [label="gini = 0.5\nsamples = 4\nvalue = [0.0, 0.0, 0.0, 1.61, 0.0, 1.34, 0.0, 0.0, 0.0]\nclass = 4", fillcolor="#defbea"] ;
94 -> 98 ;
99 [label="14 <= 0.85\ngini = 0.57\nsamples = 6\nvalue = [2.6, 0.0, 0.0, 0.54, 1.51, 0.0, 0.0, 0.0, 0.0]\nclass = 1", fillcolor="#f6d3ba"] ;
93 -> 99 ;
100 [label="gini = 0.59\nsamples = 3\nvalue = [0.65, 0.0, 0.0, 0.54, 1.51, 0.0, 0.0, 0.0, 0.0]\nclass = 5", fillcolor="#aceef4"] ;
99 -> 100 ;
101 [label="gini = 0.0\nsamples = 3\nvalue = [1.95, 0.0, 0.0, 0.0, 0.0, 0.0, 0.0, 0.0, 0.0]\nclass = 1", fillcolor="#e58139"] ;
99 -> 101 ;
102 [label="6 <= 0.22\ngini = 0.28\nsamples = 9\nvalue = [0.0, 0.0, 0.0, 1.61, 0.0, 8.03, 0.0, 0.0, 0.0]\nclass = 6", fillcolor="#6183ea"] ;
92 -> 102 ;
103 [label="gini = -0.0\nsamples = 6\nvalue = [0.0, 0.0, 0.0, 0.0, 0.0, 8.03, 0.0, 0.0, 0.0]\nclass = 6", fillcolor="#3964e5"] ;
102 -> 103 ;
104 [label="gini = 0.0\nsamples = 3\nvalue = [0.0, 0.0, 0.0, 1.61, 0.0, 0.0, 0.0, 0.0, 0.0]\nclass = 4", fillcolor="#39e581"] ;
102 -> 104 ;
105 [label="80 <= 0.88\ngini = 0.84\nsamples = 222\nvalue = [15.61, 30.23, 33.58, 12.35, 27.25, 18.73, 38.02, 0.0\n0.0]\nclass = 7", fillcolor="#fbf9fe"] ;
5 -> 105 ;
106 [label="41 <= 0.92\ngini = 0.5\nsamples = 12\nvalue = [1.3, 4.09, 12.59, 0.0, 0.0, 0.0, 0.78, 0.0, 0.0]\nclass = 3", fillcolor="#a5f08c"] ;
105 -> 106 ;
107 [label="gini = 0.06\nsamples = 4\nvalue = [0.0, 0.0, 12.59, 0.0, 0.0, 0.0, 0.39, 0.0, 0.0]\nclass = 3", fillcolor="#69e63f"] ;
106 -> 107 ;
108 [label="83 <= 0.48\ngini = 0.44\nsamples = 8\nvalue = [1.3, 4.09, 0.0, 0.0, 0.0, 0.0, 0.39, 0.0, 0.0]\nclass = 2", fillcolor="#e6ef84"] ;
106 -> 108 ;
109 [label="gini = 0.35\nsamples = 3\nvalue = [1.3, 0.0, 0.0, 0.0, 0.0, 0.0, 0.39, 0.0, 0.0]\nclass = 1", fillcolor="#eda774"] ;
108 -> 109 ;
110 [label="gini = -0.0\nsamples = 5\nvalue = [0.0, 4.09, 0.0, 0.0, 0.0, 0.0, 0.0, 0.0, 0.0]\nclass = 2", fillcolor="#d7e539"] ;
108 -> 110 ;
111 [label="79 <= 0.84\ngini = 0.84\nsamples = 210\nvalue = [14.31, 26.15, 20.98, 12.35, 27.25, 18.73, 37.24, 0.0\n0.0]\nclass = 7", fillcolor="#f5f0fd"] ;
105 -> 111 ;
112 [label="80 <= 0.91\ngini = 0.84\nsamples = 98\nvalue = [9.1, 17.16, 16.79, 4.83, 7.57, 14.72, 13.19, 0.0, 0.0]\nclass = 2", fillcolor="#fffffe"] ;
111 -> 112 ;
113 [label="42 <= 0.82\ngini = 0.77\nsamples = 48\nvalue = [4.55, 9.81, 0.0, 0.54, 4.54, 12.04, 6.21, 0.0, 0.0]\nclass = 6", fillcolor="#eff3fd"] ;
112 -> 113 ;
114 [label="45 <= 0.79\ngini = 0.55\nsamples = 12\nvalue = [0.0, 1.63, 0.0, 0.54, 1.51, 8.03, 0.78, 0.0, 0.0]\nclass = 6", fillcolor="#8aa4f0"] ;
113 -> 114 ;
115 [label="58 <= 0.08\ngini = 0.25\nsamples = 9\nvalue = [0.0, 0.0, 0.0, 0.54, 0.0, 8.03, 0.78, 0.0, 0.0]\nclass = 6", fillcolor="#577ce9"] ;
114 -> 115 ;
116 [label="gini = -0.0\nsamples = 5\nvalue = [0.0, 0.0, 0.0, 0.0, 0.0, 6.69, 0.0, 0.0, 0.0]\nclass = 6", fillcolor="#3964e5"] ;
115 -> 116 ;
117 [label="gini = 0.62\nsamples = 4\nvalue = [0.0, 0.0, 0.0, 0.54, 0.0, 1.34, 0.78, 0.0, 0.0]\nclass = 6", fillcolor="#c4d1f7"] ;
115 -> 117 ;
118 [label="gini = 0.5\nsamples = 3\nvalue = [0.0, 1.63, 0.0, 0.0, 1.51, 0.0, 0.0, 0.0, 0.0]\nclass = 2", fillcolor="#fcfdf0"] ;
114 -> 118 ;
119 [label="21 <= 0.13\ngini = 0.78\nsamples = 36\nvalue = [4.55, 8.17, 0.0, 0.0, 3.03, 4.01, 5.43, 0.0, 0.0]\nclass = 2", fillcolor="#f9fbe4"] ;
113 -> 119 ;
120 [label="3 <= 0.12\ngini = 0.79\nsamples = 29\nvalue = [4.55, 3.27, 0.0, 0.0, 3.03, 4.01, 5.04, 0.0, 0.0]\nclass = 7", fillcolor="#fbf9fe"] ;
119 -> 120 ;
121 [label="gini = 0.0\nsamples = 5\nvalue = [3.25, 0.0, 0.0, 0.0, 0.0, 0.0, 0.0, 0.0, 0.0]\nclass = 1", fillcolor="#e58139"] ;
120 -> 121 ;
122 [label="46 <= 0.68\ngini = 0.77\nsamples = 24\nvalue = [1.3, 3.27, 0.0, 0.0, 3.03, 4.01, 5.04, 0.0, 0.0]\nclass = 7", fillcolor="#f5effd"] ;
120 -> 122 ;
123 [label="16 <= 0.51\ngini = 0.55\nsamples = 7\nvalue = [0.65, 0.82, 0.0, 0.0, 0.0, 4.01, 0.78, 0.0, 0.0]\nclass = 6", fillcolor="#8ba4f0"] ;
122 -> 123 ;
124 [label="gini = 0.16\nsamples = 4\nvalue = [0.0, 0.0, 0.0, 0.0, 0.0, 4.01, 0.39, 0.0, 0.0]\nclass = 6", fillcolor="#4c73e8"] ;
123 -> 124 ;
125 [label="gini = 0.64\nsamples = 3\nvalue = [0.65, 0.82, 0.0, 0.0, 0.0, 0.0, 0.39, 0.0, 0.0]\nclass = 2", fillcolor="#f9fbe4"] ;
123 -> 125 ;
126 [label="37 <= 0.85\ngini = 0.69\nsamples = 17\nvalue = [0.65, 2.45, 0.0, 0.0, 3.03, 0.0, 4.27, 0.0, 0.0]\nclass = 7", fillcolor="#eadefb"] ;
122 -> 126 ;
127 [label="16 <= 0.55\ngini = 0.59\nsamples = 11\nvalue = [0.65, 2.45, 0.0, 0.0, 0.0, 0.0, 2.72, 0.0, 0.0]\nclass = 7", fillcolor="#f5effd"] ;
126 -> 127 ;
128 [label="gini = 0.37\nsamples = 5\nvalue = [0.0, 2.45, 0.0, 0.0, 0.0, 0.0, 0.78, 0.0, 0.0]\nclass = 2", fillcolor="#e4ed78"] ;
127 -> 128 ;
129 [label="47 <= 0.1\ngini = 0.38\nsamples = 6\nvalue = [0.65, 0.0, 0.0, 0.0, 0.0, 0.0, 1.94, 0.0, 0.0]\nclass = 7", fillcolor="#ab7bee"] ;
127 -> 129 ;
130 [label="gini = 0.0\nsamples = 3\nvalue = [0.0, 0.0, 0.0, 0.0, 0.0, 0.0, 1.16, 0.0, 0.0]\nclass = 7", fillcolor="#8139e5"] ;
129 -> 130 ;
131 [label="gini = 0.5\nsamples = 3\nvalue = [0.65, 0.0, 0.0, 0.0, 0.0, 0.0, 0.78, 0.0, 0.0]\nclass = 7", fillcolor="#ebdffb"] ;
129 -> 131 ;
132 [label="4 <= 0.9\ngini = 0.45\nsamples = 6\nvalue = [0.0, 0.0, 0.0, 0.0, 3.03, 0.0, 1.55, 0.0, 0.0]\nclass = 5", fillcolor="#9eecf2"] ;
126 -> 132 ;
133 [label="gini = 0.45\nsamples = 3\nvalue = [0.0, 0.0, 0.0, 0.0, 1.51, 0.0, 0.78, 0.0, 0.0]\nclass = 5", fillcolor="#9eecf2"] ;
132 -> 133 ;
134 [label="gini = 0.45\nsamples = 3\nvalue = [0.0, 0.0, 0.0, 0.0, 1.51, 0.0, 0.78, 0.0, 0.0]\nclass = 5", fillcolor="#9eecf2"] ;
132 -> 134 ;
135 [label="8 <= 0.95\ngini = 0.14\nsamples = 7\nvalue = [0.0, 4.9, 0.0, 0.0, 0.0, 0.0, 0.39, 0.0, 0.0]\nclass = 2", fillcolor="#dae749"] ;
119 -> 135 ;
136 [label="gini = 0.31\nsamples = 3\nvalue = [0.0, 1.63, 0.0, 0.0, 0.0, 0.0, 0.39, 0.0, 0.0]\nclass = 2", fillcolor="#e0eb68"] ;
135 -> 136 ;
137 [label="gini = 0.0\nsamples = 4\nvalue = [0.0, 3.27, 0.0, 0.0, 0.0, 0.0, 0.0, 0.0, 0.0]\nclass = 2", fillcolor="#d7e539"] ;
135 -> 137 ;
138 [label="48 <= 0.94\ngini = 0.79\nsamples = 50\nvalue = [4.55, 7.35, 16.79, 4.29, 3.03, 2.68, 6.98, 0.0, 0.0]\nclass = 3", fillcolor="#d9f9ce"] ;
112 -> 138 ;
139 [label="gini = 0.26\nsamples = 5\nvalue = [0.65, 0.0, 8.39, 0.0, 0.0, 0.0, 0.78, 0.0, 0.0]\nclass = 3", fillcolor="#7ce958"] ;
138 -> 139 ;
140 [label="8 <= 0.94\ngini = 0.83\nsamples = 45\nvalue = [3.9, 7.35, 8.39, 4.29, 3.03, 2.68, 6.21, 0.0, 0.0]\nclass = 3", fillcolor="#f9fef8"] ;
138 -> 140 ;
141 [label="34 <= 0.96\ngini = 0.78\nsamples = 28\nvalue = [3.25, 1.63, 8.39, 2.68, 3.03, 0.0, 4.66, 0.0, 0.0]\nclass = 3", fillcolor="#e0fad8"] ;
140 -> 141 ;
142 [label="14 <= 0.79\ngini = 0.78\nsamples = 18\nvalue = [3.25, 1.63, 0.0, 1.61, 3.03, 0.0, 2.33, 0.0, 0.0]\nclass = 1", fillcolor="#fefcfa"] ;
141 -> 142 ;
143 [label="85 <= 0.86\ngini = 0.72\nsamples = 11\nvalue = [0.0, 1.63, 0.0, 1.07, 3.03, 0.0, 1.94, 0.0, 0.0]\nclass = 5", fillcolor="#d9f7fa"] ;
142 -> 143 ;
144 [label="gini = 0.2\nsamples = 3\nvalue = [0.0, 0.0, 0.0, 0.0, 3.03, 0.0, 0.39, 0.0, 0.0]\nclass = 5", fillcolor="#52dce8"] ;
143 -> 144 ;
145 [label="53 <= 0.81\ngini = 0.66\nsamples = 8\nvalue = [0.0, 1.63, 0.0, 1.07, 0.0, 0.0, 1.55, 0.0, 0.0]\nclass = 2", fillcolor="#fefef9"] ;
143 -> 145 ;
146 [label="gini = 0.38\nsamples = 5\nvalue = [0.0, 0.0, 0.0, 0.54, 0.0, 0.0, 1.55, 0.0, 0.0]\nclass = 7", fillcolor="#ad7dee"] ;
145 -> 146 ;
147 [label="gini = 0.37\nsamples = 3\nvalue = [0.0, 1.63, 0.0, 0.54, 0.0, 0.0, 0.0, 0.0, 0.0]\nclass = 2", fillcolor="#e4ee7a"] ;
145 -> 147 ;
148 [label="65 <= 0.27\ngini = 0.37\nsamples = 7\nvalue = [3.25, 0.0, 0.0, 0.54, 0.0, 0.0, 0.39, 0.0, 0.0]\nclass = 1", fillcolor="#eca16b"] ;
142 -> 148 ;
149 [label="gini = 0.65\nsamples = 3\nvalue = [0.65, 0.0, 0.0, 0.54, 0.0, 0.0, 0.39, 0.0, 0.0]\nclass = 1", fillcolor="#fcf1e9"] ;
148 -> 149 ;
150 [label="gini = -0.0\nsamples = 4\nvalue = [2.6, 0.0, 0.0, 0.0, 0.0, 0.0, 0.0, 0.0, 0.0]\nclass = 1", fillcolor="#e58139"] ;
148 -> 150 ;
151 [label="10 <= 0.86\ngini = 0.45\nsamples = 10\nvalue = [0.0, 0.0, 8.39, 1.07, 0.0, 0.0, 2.33, 0.0, 0.0]\nclass = 3", fillcolor="#9cee80"] ;
141 -> 151 ;
152 [label="gini = 0.49\nsamples = 4\nvalue = [0.0, 0.0, 0.0, 1.07, 0.0, 0.0, 0.78, 0.0, 0.0]\nclass = 4", fillcolor="#c8f8dc"] ;
151 -> 152 ;
153 [label="gini = 0.26\nsamples = 6\nvalue = [0.0, 0.0, 8.39, 0.0, 0.0, 0.0, 1.55, 0.0, 0.0]\nclass = 3", fillcolor="#81ea5e"] ;
151 -> 153 ;
154 [label="85 <= 0.93\ngini = 0.7\nsamples = 17\nvalue = [0.65, 5.72, 0.0, 1.61, 0.0, 2.68, 1.55, 0.0, 0.0]\nclass = 2", fillcolor="#f2f7c0"] ;
140 -> 154 ;
155 [label="78 <= 0.95\ngini = 0.5\nsamples = 12\nvalue = [0.0, 5.72, 0.0, 0.0, 0.0, 1.34, 1.55, 0.0, 0.0]\nclass = 2", fillcolor="#e7f08a"] ;
154 -> 155 ;
156 [label="gini = 0.6\nsamples = 3\nvalue = [0.0, 0.82, 0.0, 0.0, 0.0, 1.34, 0.39, 0.0, 0.0]\nclass = 6", fillcolor="#c3d0f7"] ;
155 -> 156 ;
157 [label="93 <= 0.71\ngini = 0.31\nsamples = 9\nvalue = [0.0, 4.9, 0.0, 0.0, 0.0, 0.0, 1.16, 0.0, 0.0]\nclass = 2", fillcolor="#e0eb68"] ;
155 -> 157 ;
158 [label="gini = 0.48\nsamples = 4\nvalue = [0.0, 0.82, 0.0, 0.0, 0.0, 0.0, 1.16, 0.0, 0.0]\nclass = 7", fillcolor="#d9c4f7"] ;
157 -> 158 ;
159 [label="gini = -0.0\nsamples = 5\nvalue = [0.0, 4.09, 0.0, 0.0, 0.0, 0.0, 0.0, 0.0, 0.0]\nclass = 2", fillcolor="#d7e539"] ;
157 -> 159 ;
160 [label="gini = 0.63\nsamples = 5\nvalue = [0.65, 0.0, 0.0, 1.61, 0.0, 1.34, 0.0, 0.0, 0.0]\nclass = 4", fillcolor="#e7fcf0"] ;
154 -> 160 ;
161 [label="gene_CDKN2A <= 0.01\ngini = 0.79\nsamples = 112\nvalue = [5.2, 8.99, 4.2, 7.52, 19.68, 4.01, 24.05, 0.0, 0.0]\nclass = 7", fillcolor="#f5effd"] ;
111 -> 161 ;
162 [label="37 <= 0.91\ngini = 0.77\nsamples = 106\nvalue = [5.2, 8.99, 4.2, 4.29, 19.68, 4.01, 24.05, 0.0, 0.0]\nclass = 7", fillcolor="#f4eefd"] ;
161 -> 162 ;
163 [label="gene_FLT3 <= 0.82\ngini = 0.75\nsamples = 101\nvalue = [4.55, 8.99, 0.0, 4.29, 18.16, 4.01, 23.28, 0.0, 0.0]\nclass = 7", fillcolor="#f1e9fc"] ;
162 -> 163 ;
164 [label="92 <= 0.07\ngini = 0.76\nsamples = 90\nvalue = [4.55, 8.99, 0.0, 4.29, 18.16, 4.01, 19.01, 0.0, 0.0]\nclass = 7", fillcolor="#fcfbfe"] ;
163 -> 164 ;
165 [label="11 <= 0.57\ngini = 0.63\nsamples = 10\nvalue = [1.95, 0.0, 0.0, 0.54, 0.0, 4.01, 1.16, 0.0, 0.0]\nclass = 6", fillcolor="#b8c7f6"] ;
164 -> 165 ;
166 [label="gini = 0.66\nsamples = 4\nvalue = [0.65, 0.0, 0.0, 0.54, 0.0, 0.0, 0.78, 0.0, 0.0]\nclass = 7", fillcolor="#f3ecfd"] ;
165 -> 166 ;
167 [label="gini = 0.45\nsamples = 6\nvalue = [1.3, 0.0, 0.0, 0.0, 0.0, 4.01, 0.39, 0.0, 0.0]\nclass = 6", fillcolor="#859fef"] ;
165 -> 167 ;
168 [label="35 <= 0.84\ngini = 0.72\nsamples = 80\nvalue = [2.6, 8.99, 0.0, 3.76, 18.16, 0.0, 17.85, 0.0, 0.0]\nclass = 5", fillcolor="#fdffff"] ;
164 -> 168 ;
169 [label="17 <= 0.62\ngini = 0.72\nsamples = 63\nvalue = [2.6, 6.54, 0.0, 3.76, 7.57, 0.0, 15.13, 0.0, 0.0]\nclass = 7", fillcolor="#ddcaf8"] ;
168 -> 169 ;
170 [label="10 <= 0.82\ngini = 0.68\nsamples = 17\nvalue = [2.6, 1.63, 0.0, 0.0, 6.05, 0.0, 2.72, 0.0, 0.0]\nclass = 5", fillcolor="#bff2f7"] ;
169 -> 170 ;
171 [label="44 <= 0.39\ngini = 0.63\nsamples = 6\nvalue = [0.65, 1.63, 0.0, 0.0, 0.0, 0.0, 1.16, 0.0, 0.0]\nclass = 2", fillcolor="#f7fad6"] ;
170 -> 171 ;
172 [label="gini = 0.41\nsamples = 3\nvalue = [0.65, 1.63, 0.0, 0.0, 0.0, 0.0, 0.0, 0.0, 0.0]\nclass = 2", fillcolor="#e7ef88"] ;
171 -> 172 ;
173 [label="gini = -0.0\nsamples = 3\nvalue = [0.0, 0.0, 0.0, 0.0, 0.0, 0.0, 1.16, 0.0, 0.0]\nclass = 7", fillcolor="#8139e5"] ;
171 -> 173 ;
174 [label="10 <= 0.86\ngini = 0.53\nsamples = 11\nvalue = [1.95, 0.0, 0.0, 0.0, 6.05, 0.0, 1.55, 0.0, 0.0]\nclass = 5", fillcolor="#94e9f1"] ;
170 -> 174 ;
175 [label="1 <= 0.83\ngini = 0.42\nsamples = 8\nvalue = [1.95, 0.0, 0.0, 0.0, 6.05, 0.0, 0.39, 0.0, 0.0]\nclass = 5", fillcolor="#81e6ee"] ;
174 -> 175 ;
176 [label="gini = 0.48\nsamples = 5\nvalue = [1.95, 0.0, 0.0, 0.0, 3.03, 0.0, 0.0, 0.0, 0.0]\nclass = 5", fillcolor="#b9f1f6"] ;
175 -> 176 ;
177 [label="gini = 0.2\nsamples = 3\nvalue = [0.0, 0.0, 0.0, 0.0, 3.03, 0.0, 0.39, 0.0, 0.0]\nclass = 5", fillcolor="#52dce8"] ;
175 -> 177 ;
178 [label="gini = 0.0\nsamples = 3\nvalue = [0.0, 0.0, 0.0, 0.0, 0.0, 0.0, 1.16, 0.0, 0.0]\nclass = 7", fillcolor="#8139e5"] ;
174 -> 178 ;
179 [label="gene_NF1 <= 0.41\ngini = 0.62\nsamples = 46\nvalue = [0.0, 4.9, 0.0, 3.76, 1.51, 0.0, 12.41, 0.0, 0.0]\nclass = 7", fillcolor="#c9abf4"] ;
169 -> 179 ;
180 [label="60 <= 0.06\ngini = 0.58\nsamples = 43\nvalue = [0.0, 4.9, 0.0, 2.15, 1.51, 0.0, 12.41, 0.0, 0.0]\nclass = 7", fillcolor="#c4a2f3"] ;
179 -> 180 ;
181 [label="61 <= 0.57\ngini = 0.66\nsamples = 6\nvalue = [0.0, 1.63, 0.0, 0.0, 1.51, 0.0, 1.16, 0.0, 0.0]\nclass = 2", fillcolor="#fdfef6"] ;
180 -> 181 ;
182 [label="gini = 0.5\nsamples = 3\nvalue = [0.0, 1.63, 0.0, 0.0, 1.51, 0.0, 0.0, 0.0, 0.0]\nclass = 2", fillcolor="#fcfdf0"] ;
181 -> 182 ;
183 [label="gini = 0.0\nsamples = 3\nvalue = [0.0, 0.0, 0.0, 0.0, 0.0, 0.0, 1.16, 0.0, 0.0]\nclass = 7", fillcolor="#8139e5"] ;
181 -> 183 ;
184 [label="69 <= 0.88\ngini = 0.49\nsamples = 37\nvalue = [0.0, 3.27, 0.0, 2.15, 0.0, 0.0, 11.25, 0.0, 0.0]\nclass = 7", fillcolor="#b489f0"] ;
180 -> 184 ;
185 [label="92 <= 0.11\ngini = 0.59\nsamples = 17\nvalue = [0.0, 3.27, 0.0, 1.07, 0.0, 0.0, 4.27, 0.0, 0.0]\nclass = 7", fillcolor="#e7dafa"] ;
184 -> 185 ;
186 [label="gini = 0.0\nsamples = 7\nvalue = [0.0, 0.0, 0.0, 0.0, 0.0, 0.0, 2.72, 0.0, 0.0]\nclass = 7", fillcolor="#8139e5"] ;
185 -> 186 ;
187 [label="89 <= 0.56\ngini = 0.59\nsamples = 10\nvalue = [0.0, 3.27, 0.0, 1.07, 0.0, 0.0, 1.55, 0.0, 0.0]\nclass = 2", fillcolor="#eff5b1"] ;
185 -> 187 ;
188 [label="48 <= 0.95\ngini = 0.37\nsamples = 6\nvalue = [0.0, 3.27, 0.0, 0.54, 0.0, 0.0, 0.39, 0.0, 0.0]\nclass = 2", fillcolor="#e1ec6b"] ;
187 -> 188 ;
189 [label="gini = 0.0\nsamples = 3\nvalue = [0.0, 2.45, 0.0, 0.0, 0.0, 0.0, 0.0, 0.0, 0.0]\nclass = 2", fillcolor="#d7e539"] ;
188 -> 189 ;
190 [label="gini = 0.64\nsamples = 3\nvalue = [0.0, 0.82, 0.0, 0.54, 0.0, 0.0, 0.39, 0.0, 0.0]\nclass = 2", fillcolor="#f6f9d1"] ;
188 -> 190 ;
191 [label="gini = 0.43\nsamples = 4\nvalue = [0.0, 0.0, 0.0, 0.54, 0.0, 0.0, 1.16, 0.0, 0.0]\nclass = 7", fillcolor="#bb94f1"] ;
187 -> 191 ;
192 [label="94 <= 0.04\ngini = 0.23\nsamples = 20\nvalue = [0.0, 0.0, 0.0, 1.07, 0.0, 0.0, 6.98, 0.0, 0.0]\nclass = 7", fillcolor="#9457e9"] ;
184 -> 192 ;
193 [label="gini = 0.5\nsamples = 5\nvalue = [0.0, 0.0, 0.0, 1.07, 0.0, 0.0, 1.16, 0.0, 0.0]\nclass = 7", fillcolor="#f5f0fd"] ;
192 -> 193 ;
194 [label="gini = -0.0\nsamples = 15\nvalue = [0.0, 0.0, 0.0, 0.0, 0.0, 0.0, 5.82, 0.0, 0.0]\nclass = 7", fillcolor="#8139e5"] ;
192 -> 194 ;
195 [label="gini = -0.0\nsamples = 3\nvalue = [0.0, 0.0, 0.0, 1.61, 0.0, 0.0, 0.0, 0.0, 0.0]\nclass = 4", fillcolor="#39e581"] ;
179 -> 195 ;
196 [label="98 <= 0.12\ngini = 0.49\nsamples = 17\nvalue = [0.0, 2.45, 0.0, 0.0, 10.6, 0.0, 2.72, 0.0, 0.0]\nclass = 5", fillcolor="#87e7ef"] ;
168 -> 196 ;
197 [label="37 <= 0.85\ngini = 0.41\nsamples = 13\nvalue = [0.0, 2.45, 0.0, 0.0, 10.6, 0.0, 1.16, 0.0, 0.0]\nclass = 5", fillcolor="#76e3ed"] ;
196 -> 197 ;
198 [label="gini = 0.61\nsamples = 7\nvalue = [0.0, 1.63, 0.0, 0.0, 3.03, 0.0, 1.16, 0.0, 0.0]\nclass = 5", fillcolor="#bdf2f6"] ;
197 -> 198 ;
199 [label="gini = 0.18\nsamples = 6\nvalue = [0.0, 0.82, 0.0, 0.0, 7.57, 0.0, 0.0, 0.0, 0.0]\nclass = 5", fillcolor="#4edbe8"] ;
197 -> 199 ;
200 [label="gini = 0.0\nsamples = 4\nvalue = [0.0, 0.0, 0.0, 0.0, 0.0, 0.0, 1.55, 0.0, 0.0]\nclass = 7", fillcolor="#8139e5"] ;
196 -> 200 ;
201 [label="gini = 0.0\nsamples = 11\nvalue = [0.0, 0.0, 0.0, 0.0, 0.0, 0.0, 4.27, 0.0, 0.0]\nclass = 7", fillcolor="#8139e5"] ;
163 -> 201 ;
202 [label="gini = 0.59\nsamples = 5\nvalue = [0.65, 0.0, 4.2, 0.0, 1.51, 0.0, 0.78, 0.0, 0.0]\nclass = 3", fillcolor="#b5f3a1"] ;
162 -> 202 ;
203 [label="gini = 0.0\nsamples = 6\nvalue = [0.0, 0.0, 0.0, 3.22, 0.0, 0.0, 0.0, 0.0, 0.0]\nclass = 4", fillcolor="#39e581"] ;
161 -> 203 ;
204 [label="64 <= 0.26\ngini = 0.67\nsamples = 54\nvalue = [3.25, 4.9, 37.77, 3.76, 31.79, 4.01, 1.16, 0.0, 0.0]\nclass = 3", fillcolor="#eefce9"] ;
4 -> 204 ;
205 [label="37 <= 0.85\ngini = 0.62\nsamples = 41\nvalue = [3.25, 4.09, 12.59, 1.07, 31.79, 2.68, 1.16, 0.0, 0.0]\nclass = 5", fillcolor="#a9eef4"] ;
204 -> 205 ;
206 [label="gini = 0.4\nsamples = 3\nvalue = [0.0, 0.82, 4.2, 0.54, 0.0, 0.0, 0.0, 0.0, 0.0]\nclass = 3", fillcolor="#90ec72"] ;
205 -> 206 ;
207 [label="79 <= 0.88\ngini = 0.57\nsamples = 38\nvalue = [3.25, 3.27, 8.39, 0.54, 31.79, 2.68, 1.16, 0.0, 0.0]\nclass = 5", fillcolor="#92e9f1"] ;
205 -> 207 ;
208 [label="98 <= 0.15\ngini = 0.53\nsamples = 33\nvalue = [3.25, 0.0, 8.39, 0.54, 30.27, 2.68, 1.16, 0.0, 0.0]\nclass = 5", fillcolor="#8de8f0"] ;
207 -> 208 ;
209 [label="20 <= 0.7\ngini = 0.51\nsamples = 30\nvalue = [3.25, 0.0, 8.39, 0.54, 30.27, 2.68, 0.0, 0.0, 0.0]\nclass = 5", fillcolor="#89e7f0"] ;
208 -> 209 ;
210 [label="58 <= 0.11\ngini = 0.52\nsamples = 15\nvalue = [0.65, 0.0, 8.39, 0.0, 16.65, 1.34, 0.0, 0.0, 0.0]\nclass = 5", fillcolor="#a7edf3"] ;
209 -> 210 ;
211 [label="gini = 0.5\nsamples = 3\nvalue = [0.65, 0.0, 4.2, 0.0, 1.51, 0.0, 0.0, 0.0, 0.0]\nclass = 3", fillcolor="#a9f191"] ;
210 -> 211 ;
212 [label="gini = 0.42\nsamples = 12\nvalue = [0.0, 0.0, 4.2, 0.0, 15.14, 1.34, 0.0, 0.0, 0.0]\nclass = 5", fillcolor="#7ce4ee"] ;
210 -> 212 ;
213 [label="95 <= 0.93\ngini = 0.41\nsamples = 15\nvalue = [2.6, 0.0, 0.0, 0.54, 13.62, 1.34, 0.0, 0.0, 0.0]\nclass = 5", fillcolor="#72e3ed"] ;
209 -> 213 ;
214 [label="gini = 0.62\nsamples = 5\nvalue = [0.65, 0.0, 0.0, 0.54, 3.03, 1.34, 0.0, 0.0, 0.0]\nclass = 5", fillcolor="#b0eff5"] ;
213 -> 214 ;
215 [label="33 <= 0.73\ngini = 0.26\nsamples = 10\nvalue = [1.95, 0.0, 0.0, 0.0, 10.6, 0.0, 0.0, 0.0, 0.0]\nclass = 5", fillcolor="#5ddeea"] ;
213 -> 215 ;
216 [label="gini = 0.0\nsamples = 4\nvalue = [0.0, 0.0, 0.0, 0.0, 6.05, 0.0, 0.0, 0.0, 0.0]\nclass = 5", fillcolor="#39d7e5"] ;
215 -> 216 ;
217 [label="gini = 0.42\nsamples = 6\nvalue = [1.95, 0.0, 0.0, 0.0, 4.54, 0.0, 0.0, 0.0, 0.0]\nclass = 5", fillcolor="#8ee8f0"] ;
215 -> 217 ;
218 [label="gini = 0.0\nsamples = 3\nvalue = [0.0, 0.0, 0.0, 0.0, 0.0, 0.0, 1.16, 0.0, 0.0]\nclass = 7", fillcolor="#8139e5"] ;
208 -> 218 ;
219 [label="gini = 0.43\nsamples = 5\nvalue = [0.0, 3.27, 0.0, 0.0, 1.51, 0.0, 0.0, 0.0, 0.0]\nclass = 2", fillcolor="#eaf195"] ;
207 -> 219 ;
220 [label="14 <= 0.84\ngini = 0.29\nsamples = 13\nvalue = [0.0, 0.82, 25.18, 2.68, 0.0, 1.34, 0.0, 0.0, 0.0]\nclass = 3", fillcolor="#7fea5c"] ;
204 -> 220 ;
221 [label="12 <= 0.3\ngini = 0.13\nsamples = 9\nvalue = [0.0, 0.82, 25.18, 1.07, 0.0, 0.0, 0.0, 0.0, 0.0]\nclass = 3", fillcolor="#6fe747"] ;
220 -> 221 ;
222 [label="gini = 0.49\nsamples = 3\nvalue = [0.0, 0.82, 0.0, 1.07, 0.0, 0.0, 0.0, 0.0, 0.0]\nclass = 4", fillcolor="#d0f9e1"] ;
221 -> 222 ;
223 [label="gini = 0.0\nsamples = 6\nvalue = [0.0, 0.0, 25.18, 0.0, 0.0, 0.0, 0.0, 0.0, 0.0]\nclass = 3", fillcolor="#64e539"] ;
221 -> 223 ;
224 [label="gini = 0.5\nsamples = 4\nvalue = [0.0, 0.0, 0.0, 1.61, 0.0, 1.34, 0.0, 0.0, 0.0]\nclass = 4", fillcolor="#defbea"] ;
220 -> 224 ;
225 [label="54 <= 0.92\ngini = 0.42\nsamples = 29\nvalue = [3.9, 0.0, 0.0, 0.54, 4.54, 25.43, 0.0, 0.0, 0.0]\nclass = 6", fillcolor="#7593ed"] ;
3 -> 225 ;
226 [label="22 <= 0.24\ngini = 0.56\nsamples = 9\nvalue = [3.9, 0.0, 0.0, 0.54, 3.03, 0.0, 0.0, 0.0, 0.0]\nclass = 1", fillcolor="#fae6d8"] ;
225 -> 226 ;
227 [label="gini = 0.34\nsamples = 4\nvalue = [1.95, 0.0, 0.0, 0.54, 0.0, 0.0, 0.0, 0.0, 0.0]\nclass = 1", fillcolor="#eca46f"] ;
226 -> 227 ;
228 [label="gini = 0.48\nsamples = 5\nvalue = [1.95, 0.0, 0.0, 0.0, 3.03, 0.0, 0.0, 0.0, 0.0]\nclass = 5", fillcolor="#b9f1f6"] ;
226 -> 228 ;
229 [label="75 <= 0.63\ngini = 0.11\nsamples = 20\nvalue = [0.0, 0.0, 0.0, 0.0, 1.51, 25.43, 0.0, 0.0, 0.0]\nclass = 6", fillcolor="#456de7"] ;
225 -> 229 ;
230 [label="gini = 0.0\nsamples = 13\nvalue = [0.0, 0.0, 0.0, 0.0, 0.0, 17.4, 0.0, 0.0, 0.0]\nclass = 6", fillcolor="#3964e5"] ;
229 -> 230 ;
231 [label="gini = 0.27\nsamples = 7\nvalue = [0.0, 0.0, 0.0, 0.0, 1.51, 8.03, 0.0, 0.0, 0.0]\nclass = 6", fillcolor="#5e81ea"] ;
229 -> 231 ;
232 [label="61 <= 0.89\ngini = 0.87\nsamples = 323\nvalue = [32.51, 40.86, 12.59, 46.7, 10.6, 24.09, 39.18, 55.4\n41.04]\nclass = 8", fillcolor="#fef8fe"] ;
2 -> 232 ;
233 [label="gene_ERBB2 <= 0.85\ngini = 0.87\nsamples = 313\nvalue = [31.86, 40.86, 12.59, 46.7, 10.6, 24.09, 36.47, 18.47\n41.04]\nclass = 4", fillcolor="#fafefc"] ;
232 -> 233 ;
234 [label="variation_Truncating Mutations <= 0.41\ngini = 0.85\nsamples = 310\nvalue = [31.86, 40.04, 12.59, 46.7, 10.6, 22.75, 36.47, 0.0\n41.04]\nclass = 4", fillcolor="#f9fefb"] ;
233 -> 234 ;
235 [label="gene_PTEN <= 0.12\ngini = 0.85\nsamples = 298\nvalue = [24.06, 40.04, 12.59, 46.7, 10.6, 22.75, 36.47, 0.0\n41.04]\nclass = 4", fillcolor="#f9fefb"] ;
234 -> 235 ;
236 [label="74 <= 0.07\ngini = 0.85\nsamples = 278\nvalue = [24.06, 40.04, 8.39, 36.5, 10.6, 22.75, 36.47, 0.0\n41.04]\nclass = 9", fillcolor="#fffefe"] ;
235 -> 236 ;
237 [label="73 <= 0.87\ngini = 0.72\nsamples = 55\nvalue = [6.5, 1.63, 0.0, 11.81, 4.54, 6.69, 3.88, 0.0, 30.78]\nclass = 9", fillcolor="#f6b9c9"] ;
236 -> 237 ;
238 [label="gene_CTNNB1 <= 0.59\ngini = 0.44\nsamples = 18\nvalue = [0.65, 0.0, 0.0, 6.44, 0.0, 0.0, 1.94, 0.0, 0.0]\nclass = 4", fillcolor="#81eeaf"] ;
237 -> 238 ;
239 [label="41 <= 0.94\ngini = 0.31\nsamples = 15\nvalue = [0.65, 0.0, 0.0, 6.44, 0.0, 0.0, 0.78, 0.0, 0.0]\nclass = 4", fillcolor="#61ea9a"] ;
238 -> 239 ;
240 [label="51 <= 0.68\ngini = 0.61\nsamples = 6\nvalue = [0.65, 0.0, 0.0, 1.61, 0.0, 0.0, 0.78, 0.0, 0.0]\nclass = 4", fillcolor="#b6f5d0"] ;
239 -> 240 ;
241 [label="gini = 0.0\nsamples = 3\nvalue = [0.0, 0.0, 0.0, 1.61, 0.0, 0.0, 0.0, 0.0, 0.0]\nclass = 4", fillcolor="#39e581"] ;
240 -> 241 ;
242 [label="gini = 0.5\nsamples = 3\nvalue = [0.65, 0.0, 0.0, 0.0, 0.0, 0.0, 0.78, 0.0, 0.0]\nclass = 7", fillcolor="#ebdffb"] ;
240 -> 242 ;
243 [label="gini = 0.0\nsamples = 9\nvalue = [0.0, 0.0, 0.0, 4.83, 0.0, 0.0, 0.0, 0.0, 0.0]\nclass = 4", fillcolor="#39e581"] ;
239 -> 243 ;
244 [label="gini = 0.0\nsamples = 3\nvalue = [0.0, 0.0, 0.0, 0.0, 0.0, 0.0, 1.16, 0.0, 0.0]\nclass = 7", fillcolor="#8139e5"] ;
238 -> 244 ;
245 [label="7 <= 0.07\ngini = 0.66\nsamples = 37\nvalue = [5.85, 1.63, 0.0, 5.37, 4.54, 6.69, 1.94, 0.0, 30.78]\nclass = 9", fillcolor="#f3a0b4"] ;
237 -> 245 ;
246 [label="27 <= 0.77\ngini = 0.77\nsamples = 15\nvalue = [3.9, 0.82, 0.0, 1.61, 3.03, 2.68, 0.39, 0.0, 0.0]\nclass = 1", fillcolor="#fdf3ed"] ;
245 -> 246 ;
247 [label="gini = 0.59\nsamples = 5\nvalue = [0.65, 0.0, 0.0, 0.0, 3.03, 2.68, 0.0, 0.0, 0.0]\nclass = 5", fillcolor="#ecfbfd"] ;
246 -> 247 ;
248 [label="85 <= 0.9\ngini = 0.62\nsamples = 10\nvalue = [3.25, 0.82, 0.0, 1.61, 0.0, 0.0, 0.39, 0.0, 0.0]\nclass = 1", fillcolor="#f5d1b6"] ;
246 -> 248 ;
249 [label="gini = 0.36\nsamples = 5\nvalue = [2.6, 0.82, 0.0, 0.0, 0.0, 0.0, 0.0, 0.0, 0.0]\nclass = 1", fillcolor="#eda977"] ;
248 -> 249 ;
250 [label="gini = 0.55\nsamples = 5\nvalue = [0.65, 0.0, 0.0, 1.61, 0.0, 0.0, 0.39, 0.0, 0.0]\nclass = 4", fillcolor="#a0f3c2"] ;
248 -> 250 ;
251 [label="38 <= 0.18\ngini = 0.5\nsamples = 22\nvalue = [1.95, 0.82, 0.0, 3.76, 1.51, 4.01, 1.55, 0.0, 30.78]\nclass = 9", fillcolor="#ee7c98"] ;
245 -> 251 ;
252 [label="98 <= 0.15\ngini = 0.18\nsamples = 9\nvalue = [0.65, 0.82, 0.0, 0.54, 0.0, 0.0, 1.16, 0.0, 30.78]\nclass = 9", fillcolor="#e84c73"] ;
251 -> 252 ;
253 [label="gini = 0.06\nsamples = 5\nvalue = [0.65, 0.0, 0.0, 0.0, 0.0, 0.0, 0.39, 0.0, 30.78]\nclass = 9", fillcolor="#e64069"] ;
252 -> 253 ;
254 [label="gini = 0.66\nsamples = 4\nvalue = [0.0, 0.82, 0.0, 0.54, 0.0, 0.0, 0.78, 0.0, 0.0]\nclass = 2", fillcolor="#fefef9"] ;
252 -> 254 ;
255 [label="92 <= 0.08\ngini = 0.72\nsamples = 13\nvalue = [1.3, 0.0, 0.0, 3.22, 1.51, 4.01, 0.39, 0.0, 0.0]\nclass = 6", fillcolor="#e9eefc"] ;
251 -> 255 ;
256 [label="66 <= 0.62\ngini = 0.47\nsamples = 6\nvalue = [1.3, 0.0, 0.0, 2.15, 0.0, 0.0, 0.0, 0.0, 0.0]\nclass = 4", fillcolor="#b1f5cd"] ;
255 -> 256 ;
257 [label="gini = 0.0\nsamples = 3\nvalue = [0.0, 0.0, 0.0, 1.61, 0.0, 0.0, 0.0, 0.0, 0.0]\nclass = 4", fillcolor="#39e581"] ;
256 -> 257 ;
258 [label="gini = 0.41\nsamples = 3\nvalue = [1.3, 0.0, 0.0, 0.54, 0.0, 0.0, 0.0, 0.0, 0.0]\nclass = 1", fillcolor="#f0b58b"] ;
256 -> 258 ;
259 [label="91 <= 0.89\ngini = 0.6\nsamples = 7\nvalue = [0.0, 0.0, 0.0, 1.07, 1.51, 4.01, 0.39, 0.0, 0.0]\nclass = 6", fillcolor="#a5b8f3"] ;
255 -> 259 ;
260 [label="gini = 0.49\nsamples = 3\nvalue = [0.0, 0.0, 0.0, 1.07, 1.51, 0.0, 0.0, 0.0, 0.0]\nclass = 5", fillcolor="#c5f3f7"] ;
259 -> 260 ;
261 [label="gini = 0.16\nsamples = 4\nvalue = [0.0, 0.0, 0.0, 0.0, 0.0, 4.01, 0.39, 0.0, 0.0]\nclass = 6", fillcolor="#4c73e8"] ;
259 -> 261 ;
262 [label="89 <= 0.32\ngini = 0.83\nsamples = 223\nvalue = [17.56, 38.4, 8.39, 24.69, 6.05, 16.06, 32.59, 0.0\n10.26]\nclass = 2", fillcolor="#fdfef6"] ;
236 -> 262 ;
263 [label="58 <= 0.07\ngini = 0.68\nsamples = 15\nvalue = [2.6, 1.63, 0.0, 1.07, 0.0, 2.68, 1.55, 0.0, 10.26]\nclass = 9", fillcolor="#f3a7ba"] ;
262 -> 263 ;
264 [label="49 <= 0.95\ngini = 0.75\nsamples = 12\nvalue = [2.6, 0.82, 0.0, 1.07, 0.0, 2.68, 1.16, 0.0, 0.0]\nclass = 6", fillcolor="#fcfdff"] ;
263 -> 264 ;
265 [label="61 <= 0.42\ngini = 0.63\nsamples = 6\nvalue = [0.0, 0.82, 0.0, 1.07, 0.0, 2.68, 0.39, 0.0, 0.0]\nclass = 6", fillcolor="#adbff4"] ;
264 -> 265 ;
266 [label="gini = 0.28\nsamples = 3\nvalue = [0.0, 0.0, 0.0, 0.54, 0.0, 2.68, 0.0, 0.0, 0.0]\nclass = 6", fillcolor="#6183ea"] ;
265 -> 266 ;
267 [label="gini = 0.64\nsamples = 3\nvalue = [0.0, 0.82, 0.0, 0.54, 0.0, 0.0, 0.39, 0.0, 0.0]\nclass = 2", fillcolor="#f6f9d1"] ;
265 -> 267 ;
268 [label="11 <= 0.54\ngini = 0.35\nsamples = 6\nvalue = [2.6, 0.0, 0.0, 0.0, 0.0, 0.0, 0.78, 0.0, 0.0]\nclass = 1", fillcolor="#eda774"] ;
264 -> 268 ;
269 [label="gini = 0.0\nsamples = 3\nvalue = [1.95, 0.0, 0.0, 0.0, 0.0, 0.0, 0.0, 0.0, 0.0]\nclass = 1", fillcolor="#e58139"] ;
268 -> 269 ;
270 [label="gini = 0.5\nsamples = 3\nvalue = [0.65, 0.0, 0.0, 0.0, 0.0, 0.0, 0.78, 0.0, 0.0]\nclass = 7", fillcolor="#ebdffb"] ;
268 -> 270 ;
271 [label="gini = 0.19\nsamples = 3\nvalue = [0.0, 0.82, 0.0, 0.0, 0.0, 0.0, 0.39, 0.0, 10.26]\nclass = 9", fillcolor="#e84f76"] ;
263 -> 271 ;
272 [label="gene_PDGFRA <= 0.76\ngini = 0.81\nsamples = 208\nvalue = [14.96, 36.77, 8.39, 23.62, 6.05, 13.38, 31.04, 0.0\n0.0]\nclass = 2", fillcolor="#fdfef4"] ;
262 -> 272 ;
273 [label="gene_CBL <= 0.17\ngini = 0.8\nsamples = 205\nvalue = [14.96, 36.77, 4.2, 23.62, 6.05, 13.38, 30.26, 0.0, 0.0]\nclass = 2", fillcolor="#fcfdf2"] ;
272 -> 273 ;
274 [label="97 <= 0.94\ngini = 0.79\nsamples = 201\nvalue = [14.31, 35.95, 0.0, 23.08, 6.05, 13.38, 30.26, 0.0, 0.0]\nclass = 2", fillcolor="#fdfdf3"] ;
273 -> 274 ;
275 [label="17 <= 0.86\ngini = 0.81\nsamples = 168\nvalue = [13.65, 23.7, 0.0, 22.01, 6.05, 13.38, 24.44, 0.0, 0.0]\nclass = 7", fillcolor="#fefdff"] ;
274 -> 275 ;
276 [label="26 <= 0.31\ngini = 0.8\nsamples = 162\nvalue = [13.65, 23.7, 0.0, 21.47, 6.05, 9.37, 23.67, 0.0, 0.0]\nclass = 2", fillcolor="#ffffff"] ;
275 -> 276 ;
277 [label="16 <= 0.48\ngini = 0.59\nsamples = 10\nvalue = [3.9, 0.0, 0.0, 1.07, 0.0, 1.34, 0.39, 0.0, 0.0]\nclass = 1", fillcolor="#f3c3a0"] ;
276 -> 277 ;
278 [label="gini = 0.0\nsamples = 6\nvalue = [3.9, 0.0, 0.0, 0.0, 0.0, 0.0, 0.0, 0.0, 0.0]\nclass = 1", fillcolor="#e58139"] ;
277 -> 278 ;
279 [label="gini = 0.61\nsamples = 4\nvalue = [0.0, 0.0, 0.0, 1.07, 0.0, 1.34, 0.39, 0.0, 0.0]\nclass = 6", fillcolor="#e1e7fb"] ;
277 -> 279 ;
280 [label="60 <= 0.23\ngini = 0.79\nsamples = 152\nvalue = [9.75, 23.7, 0.0, 20.4, 6.05, 8.03, 23.28, 0.0, 0.0]\nclass = 2", fillcolor="#fffffe"] ;
276 -> 280 ;
281 [label="22 <= 0.09\ngini = 0.78\nsamples = 146\nvalue = [8.45, 23.7, 0.0, 19.33, 3.03, 8.03, 23.28, 0.0, 0.0]\nclass = 2", fillcolor="#fffffe"] ;
280 -> 281 ;
282 [label="gini = 0.41\nsamples = 6\nvalue = [2.6, 0.0, 0.0, 1.07, 0.0, 0.0, 0.0, 0.0, 0.0]\nclass = 1", fillcolor="#f0b58b"] ;
281 -> 282 ;
283 [label="variation_Deletion <= 0.19\ngini = 0.77\nsamples = 140\nvalue = [5.85, 23.7, 0.0, 18.25, 3.03, 8.03, 23.28, 0.0, 0.0]\nclass = 2", fillcolor="#fffffe"] ;
281 -> 283 ;
284 [label="77 <= 0.13\ngini = 0.76\nsamples = 132\nvalue = [3.9, 23.7, 0.0, 15.57, 3.03, 8.03, 23.28, 0.0, 0.0]\nclass = 2", fillcolor="#fffffd"] ;
283 -> 284 ;
285 [label="gini = 0.0\nsamples = 3\nvalue = [0.0, 2.45, 0.0, 0.0, 0.0, 0.0, 0.0, 0.0, 0.0]\nclass = 2", fillcolor="#d7e539"] ;
284 -> 285 ;
286 [label="53 <= 0.84\ngini = 0.76\nsamples = 129\nvalue = [3.9, 21.24, 0.0, 15.57, 3.03, 8.03, 23.28, 0.0, 0.0]\nclass = 7", fillcolor="#faf8fe"] ;
284 -> 286 ;
287 [label="24 <= 0.46\ngini = 0.74\nsamples = 103\nvalue = [3.25, 18.79, 0.0, 11.81, 3.03, 2.68, 19.01, 0.0, 0.0]\nclass = 7", fillcolor="#fefeff"] ;
286 -> 287 ;
288 [label="gini = 0.6\nsamples = 4\nvalue = [0.0, 0.82, 0.0, 0.0, 1.51, 2.68, 0.0, 0.0, 0.0]\nclass = 6", fillcolor="#bdcbf6"] ;
287 -> 288 ;
289 [label="86 <= 0.17\ngini = 0.71\nsamples = 99\nvalue = [3.25, 17.98, 0.0, 11.81, 1.51, 0.0, 19.01, 0.0, 0.0]\nclass = 7", fillcolor="#fbf9fe"] ;
287 -> 289 ;
290 [label="gene_RET <= 0.14\ngini = 0.69\nsamples = 73\nvalue = [2.6, 17.16, 0.0, 6.98, 1.51, 0.0, 13.19, 0.0, 0.0]\nclass = 2", fillcolor="#f9fbe3"] ;
289 -> 290 ;
291 [label="18 <= 0.67\ngini = 0.68\nsamples = 70\nvalue = [2.6, 17.16, 0.0, 5.37, 1.51, 0.0, 13.19, 0.0, 0.0]\nclass = 2", fillcolor="#f9fbe2"] ;
290 -> 291 ;
292 [label="31 <= 0.38\ngini = 0.68\nsamples = 65\nvalue = [2.6, 17.16, 0.0, 5.37, 1.51, 0.0, 11.25, 0.0, 0.0]\nclass = 2", fillcolor="#f6f9d3"] ;
291 -> 292 ;
293 [label="50 <= 0.84\ngini = 0.62\nsamples = 44\nvalue = [1.95, 13.89, 0.0, 1.07, 1.51, 0.0, 8.15, 0.0, 0.0]\nclass = 2", fillcolor="#f3f7c1"] ;
292 -> 293 ;
294 [label="59 <= 0.92\ngini = 0.21\nsamples = 7\nvalue = [0.65, 4.9, 0.0, 0.0, 0.0, 0.0, 0.0, 0.0, 0.0]\nclass = 2", fillcolor="#dce853"] ;
293 -> 294 ;
295 [label="gini = 0.41\nsamples = 3\nvalue = [0.65, 1.63, 0.0, 0.0, 0.0, 0.0, 0.0, 0.0, 0.0]\nclass = 2", fillcolor="#e7ef88"] ;
294 -> 295 ;
296 [label="gini = -0.0\nsamples = 4\nvalue = [0.0, 3.27, 0.0, 0.0, 0.0, 0.0, 0.0, 0.0, 0.0]\nclass = 2", fillcolor="#d7e539"] ;
294 -> 296 ;
297 [label="73 <= 0.86\ngini = 0.66\nsamples = 37\nvalue = [1.3, 8.99, 0.0, 1.07, 1.51, 0.0, 8.15, 0.0, 0.0]\nclass = 2", fillcolor="#fcfdf2"] ;
293 -> 297 ;
298 [label="gini = 0.0\nsamples = 7\nvalue = [0.0, 0.0, 0.0, 0.0, 0.0, 0.0, 2.72, 0.0, 0.0]\nclass = 7", fillcolor="#8139e5"] ;
297 -> 298 ;
299 [label="54 <= 0.94\ngini = 0.66\nsamples = 30\nvalue = [1.3, 8.99, 0.0, 1.07, 1.51, 0.0, 5.43, 0.0, 0.0]\nclass = 2", fillcolor="#f4f8c8"] ;
297 -> 299 ;
300 [label="96 <= 0.92\ngini = 0.59\nsamples = 27\nvalue = [1.3, 8.99, 0.0, 1.07, 0.0, 0.0, 4.66, 0.0, 0.0]\nclass = 2", fillcolor="#f0f5b3"] ;
299 -> 300 ;
301 [label="68 <= 0.97\ngini = 0.5\nsamples = 22\nvalue = [0.65, 8.99, 0.0, 0.54, 0.0, 0.0, 3.49, 0.0, 0.0]\nclass = 2", fillcolor="#e9f194"] ;
300 -> 301 ;
302 [label="72 <= 0.57\ngini = 0.44\nsamples = 17\nvalue = [0.65, 8.17, 0.0, 0.54, 0.0, 0.0, 1.94, 0.0, 0.0]\nclass = 2", fillcolor="#e4ee7b"] ;
301 -> 302 ;
303 [label="gini = 0.65\nsamples = 3\nvalue = [0.65, 0.0, 0.0, 0.54, 0.0, 0.0, 0.39, 0.0, 0.0]\nclass = 1", fillcolor="#fcf1e9"] ;
302 -> 303 ;
304 [label="28 <= 0.93\ngini = 0.27\nsamples = 14\nvalue = [0.0, 8.17, 0.0, 0.0, 0.0, 0.0, 1.55, 0.0, 0.0]\nclass = 2", fillcolor="#dfea5f"] ;
302 -> 304 ;
305 [label="88 <= 0.86\ngini = 0.17\nsamples = 11\nvalue = [0.0, 7.35, 0.0, 0.0, 0.0, 0.0, 0.78, 0.0, 0.0]\nclass = 2", fillcolor="#dbe84e"] ;
304 -> 305 ;
306 [label="gini = 0.44\nsamples = 4\nvalue = [0.0, 1.63, 0.0, 0.0, 0.0, 0.0, 0.78, 0.0, 0.0]\nclass = 2", fillcolor="#eaf197"] ;
305 -> 306 ;
307 [label="gini = -0.0\nsamples = 7\nvalue = [0.0, 5.72, 0.0, 0.0, 0.0, 0.0, 0.0, 0.0, 0.0]\nclass = 2", fillcolor="#d7e539"] ;
305 -> 307 ;
308 [label="gini = 0.5\nsamples = 3\nvalue = [0.0, 0.82, 0.0, 0.0, 0.0, 0.0, 0.78, 0.0, 0.0]\nclass = 2", fillcolor="#fdfef5"] ;
304 -> 308 ;
309 [label="gini = 0.45\nsamples = 5\nvalue = [0.0, 0.82, 0.0, 0.0, 0.0, 0.0, 1.55, 0.0, 0.0]\nclass = 7", fillcolor="#c3a1f3"] ;
301 -> 309 ;
310 [label="gini = 0.63\nsamples = 5\nvalue = [0.65, 0.0, 0.0, 0.54, 0.0, 0.0, 1.16, 0.0, 0.0]\nclass = 7", fillcolor="#d9c3f7"] ;
300 -> 310 ;
311 [label="gini = 0.45\nsamples = 3\nvalue = [0.0, 0.0, 0.0, 0.0, 1.51, 0.0, 0.78, 0.0, 0.0]\nclass = 5", fillcolor="#9eecf2"] ;
299 -> 311 ;
312 [label="79 <= 0.84\ngini = 0.69\nsamples = 21\nvalue = [0.65, 3.27, 0.0, 4.29, 0.0, 0.0, 3.1, 0.0, 0.0]\nclass = 4", fillcolor="#e6fcef"] ;
292 -> 312 ;
313 [label="74 <= 0.1\ngini = 0.62\nsamples = 13\nvalue = [0.0, 3.27, 0.0, 3.22, 0.0, 0.0, 1.16, 0.0, 0.0]\nclass = 2", fillcolor="#fffffd"] ;
312 -> 313 ;
314 [label="gini = 0.0\nsamples = 3\nvalue = [0.0, 2.45, 0.0, 0.0, 0.0, 0.0, 0.0, 0.0, 0.0]\nclass = 2", fillcolor="#d7e539"] ;
313 -> 314 ;
315 [label="59 <= 0.92\ngini = 0.54\nsamples = 10\nvalue = [0.0, 0.82, 0.0, 3.22, 0.0, 0.0, 1.16, 0.0, 0.0]\nclass = 4", fillcolor="#9af2bf"] ;
313 -> 315 ;
316 [label="30 <= 0.76\ngini = 0.32\nsamples = 7\nvalue = [0.0, 0.82, 0.0, 3.22, 0.0, 0.0, 0.0, 0.0, 0.0]\nclass = 4", fillcolor="#6beca1"] ;
315 -> 316 ;
317 [label="gini = 0.49\nsamples = 3\nvalue = [0.0, 0.82, 0.0, 1.07, 0.0, 0.0, 0.0, 0.0, 0.0]\nclass = 4", fillcolor="#d0f9e1"] ;
316 -> 317 ;
318 [label="gini = 0.0\nsamples = 4\nvalue = [0.0, 0.0, 0.0, 2.15, 0.0, 0.0, 0.0, 0.0, 0.0]\nclass = 4", fillcolor="#39e581"] ;
316 -> 318 ;
319 [label="gini = 0.0\nsamples = 3\nvalue = [0.0, 0.0, 0.0, 0.0, 0.0, 0.0, 1.16, 0.0, 0.0]\nclass = 7", fillcolor="#8139e5"] ;
315 -> 319 ;
320 [label="39 <= 0.52\ngini = 0.6\nsamples = 8\nvalue = [0.65, 0.0, 0.0, 1.07, 0.0, 0.0, 1.94, 0.0, 0.0]\nclass = 7", fillcolor="#d5bdf6"] ;
312 -> 320 ;
321 [label="gini = 0.0\nsamples = 3\nvalue = [0.0, 0.0, 0.0, 0.0, 0.0, 0.0, 1.16, 0.0, 0.0]\nclass = 7", fillcolor="#8139e5"] ;
320 -> 321 ;
322 [label="gini = 0.65\nsamples = 5\nvalue = [0.65, 0.0, 0.0, 1.07, 0.0, 0.0, 0.78, 0.0, 0.0]\nclass = 4", fillcolor="#ddfbe9"] ;
320 -> 322 ;
323 [label="gini = 0.0\nsamples = 5\nvalue = [0.0, 0.0, 0.0, 0.0, 0.0, 0.0, 1.94, 0.0, 0.0]\nclass = 7", fillcolor="#8139e5"] ;
291 -> 323 ;
324 [label="gini = -0.0\nsamples = 3\nvalue = [0.0, 0.0, 0.0, 1.61, 0.0, 0.0, 0.0, 0.0, 0.0]\nclass = 4", fillcolor="#39e581"] ;
290 -> 324 ;
325 [label="16 <= 0.56\ngini = 0.6\nsamples = 26\nvalue = [0.65, 0.82, 0.0, 4.83, 0.0, 0.0, 5.82, 0.0, 0.0]\nclass = 7", fillcolor="#eee4fb"] ;
289 -> 325 ;
326 [label="25 <= 0.07\ngini = 0.44\nsamples = 19\nvalue = [0.0, 0.0, 0.0, 2.68, 0.0, 0.0, 5.43, 0.0, 0.0]\nclass = 7", fillcolor="#bf9bf2"] ;
325 -> 326 ;
327 [label="gini = 0.0\nsamples = 12\nvalue = [0.0, 0.0, 0.0, 0.0, 0.0, 0.0, 4.66, 0.0, 0.0]\nclass = 7", fillcolor="#8139e5"] ;
326 -> 327 ;
328 [label="4 <= 0.88\ngini = 0.35\nsamples = 7\nvalue = [0.0, 0.0, 0.0, 2.68, 0.0, 0.0, 0.78, 0.0, 0.0]\nclass = 4", fillcolor="#72eda5"] ;
326 -> 328 ;
329 [label="gini = 0.0\nsamples = 4\nvalue = [0.0, 0.0, 0.0, 2.15, 0.0, 0.0, 0.0, 0.0, 0.0]\nclass = 4", fillcolor="#39e581"] ;
328 -> 329 ;
330 [label="gini = 0.48\nsamples = 3\nvalue = [0.0, 0.0, 0.0, 0.54, 0.0, 0.0, 0.78, 0.0, 0.0]\nclass = 7", fillcolor="#d8c2f7"] ;
328 -> 330 ;
331 [label="0 <= 0.89\ngini = 0.63\nsamples = 7\nvalue = [0.65, 0.82, 0.0, 2.15, 0.0, 0.0, 0.39, 0.0, 0.0]\nclass = 4", fillcolor="#acf4ca"] ;
325 -> 331 ;
332 [label="gini = 0.73\nsamples = 4\nvalue = [0.65, 0.82, 0.0, 0.54, 0.0, 0.0, 0.39, 0.0, 0.0]\nclass = 2", fillcolor="#fbfdec"] ;
331 -> 332 ;
333 [label="gini = 0.0\nsamples = 3\nvalue = [0.0, 0.0, 0.0, 1.61, 0.0, 0.0, 0.0, 0.0, 0.0]\nclass = 4", fillcolor="#39e581"] ;
331 -> 333 ;
334 [label="51 <= 0.72\ngini = 0.75\nsamples = 26\nvalue = [0.65, 2.45, 0.0, 3.76, 0.0, 5.35, 4.27, 0.0, 0.0]\nclass = 6", fillcolor="#edf1fd"] ;
286 -> 334 ;
335 [label="47 <= 0.16\ngini = 0.47\nsamples = 7\nvalue = [0.0, 0.82, 0.0, 2.68, 0.0, 0.0, 0.39, 0.0, 0.0]\nclass = 4", fillcolor="#87efb2"] ;
334 -> 335 ;
336 [label="gini = 0.0\nsamples = 4\nvalue = [0.0, 0.0, 0.0, 2.15, 0.0, 0.0, 0.0, 0.0, 0.0]\nclass = 4", fillcolor="#39e581"] ;
335 -> 336 ;
337 [label="gini = 0.64\nsamples = 3\nvalue = [0.0, 0.82, 0.0, 0.54, 0.0, 0.0, 0.39, 0.0, 0.0]\nclass = 2", fillcolor="#f6f9d1"] ;
335 -> 337 ;
338 [label="32 <= 0.08\ngini = 0.7\nsamples = 19\nvalue = [0.65, 1.63, 0.0, 1.07, 0.0, 5.35, 3.88, 0.0, 0.0]\nclass = 6", fillcolor="#dee5fb"] ;
334 -> 338 ;
339 [label="41 <= 0.9\ngini = 0.61\nsamples = 7\nvalue = [0.0, 1.63, 0.0, 0.54, 0.0, 0.0, 1.55, 0.0, 0.0]\nclass = 2", fillcolor="#fdfef7"] ;
338 -> 339 ;
340 [label="gini = 0.37\nsamples = 3\nvalue = [0.0, 1.63, 0.0, 0.54, 0.0, 0.0, 0.0, 0.0, 0.0]\nclass = 2", fillcolor="#e4ee7a"] ;
339 -> 340 ;
341 [label="gini = -0.0\nsamples = 4\nvalue = [0.0, 0.0, 0.0, 0.0, 0.0, 0.0, 1.55, 0.0, 0.0]\nclass = 7", fillcolor="#8139e5"] ;
339 -> 341 ;
342 [label="gene_PTPN11 <= 0.65\ngini = 0.56\nsamples = 12\nvalue = [0.65, 0.0, 0.0, 0.54, 0.0, 5.35, 2.33, 0.0, 0.0]\nclass = 6", fillcolor="#a3b7f3"] ;
338 -> 342 ;
343 [label="24 <= 0.6\ngini = 0.48\nsamples = 9\nvalue = [0.65, 0.0, 0.0, 0.54, 0.0, 5.35, 1.16, 0.0, 0.0]\nclass = 6", fillcolor="#809cee"] ;
342 -> 343 ;
344 [label="gini = 0.16\nsamples = 4\nvalue = [0.0, 0.0, 0.0, 0.0, 0.0, 4.01, 0.39, 0.0, 0.0]\nclass = 6", fillcolor="#4c73e8"] ;
343 -> 344 ;
345 [label="gini = 0.72\nsamples = 5\nvalue = [0.65, 0.0, 0.0, 0.54, 0.0, 1.34, 0.78, 0.0, 0.0]\nclass = 6", fillcolor="#d3dcf9"] ;
343 -> 345 ;
346 [label="gini = 0.0\nsamples = 3\nvalue = [0.0, 0.0, 0.0, 0.0, 0.0, 0.0, 1.16, 0.0, 0.0]\nclass = 7", fillcolor="#8139e5"] ;
342 -> 346 ;
347 [label="86 <= 0.16\ngini = 0.49\nsamples = 8\nvalue = [1.95, 0.0, 0.0, 2.68, 0.0, 0.0, 0.0, 0.0, 0.0]\nclass = 4", fillcolor="#c9f8dd"] ;
283 -> 347 ;
348 [label="gini = 0.0\nsamples = 3\nvalue = [1.95, 0.0, 0.0, 0.0, 0.0, 0.0, 0.0, 0.0, 0.0]\nclass = 1", fillcolor="#e58139"] ;
347 -> 348 ;
349 [label="gini = -0.0\nsamples = 5\nvalue = [0.0, 0.0, 0.0, 2.68, 0.0, 0.0, 0.0, 0.0, 0.0]\nclass = 4", fillcolor="#39e581"] ;
347 -> 349 ;
350 [label="3 <= 0.12\ngini = 0.59\nsamples = 6\nvalue = [1.3, 0.0, 0.0, 1.07, 3.03, 0.0, 0.0, 0.0, 0.0]\nclass = 5", fillcolor="#aceef4"] ;
280 -> 350 ;
351 [label="gini = 0.47\nsamples = 3\nvalue = [0.65, 0.0, 0.0, 1.07, 0.0, 0.0, 0.0, 0.0, 0.0]\nclass = 4", fillcolor="#b1f5cd"] ;
350 -> 351 ;
352 [label="gini = 0.29\nsamples = 3\nvalue = [0.65, 0.0, 0.0, 0.0, 3.03, 0.0, 0.0, 0.0, 0.0]\nclass = 5", fillcolor="#64e0eb"] ;
350 -> 352 ;
353 [label="63 <= 0.76\ngini = 0.4\nsamples = 6\nvalue = [0.0, 0.0, 0.0, 0.54, 0.0, 4.01, 0.78, 0.0, 0.0]\nclass = 6", fillcolor="#7291ec"] ;
275 -> 353 ;
354 [label="gini = 0.0\nsamples = 3\nvalue = [0.0, 0.0, 0.0, 0.0, 0.0, 4.01, 0.0, 0.0, 0.0]\nclass = 6", fillcolor="#3964e5"] ;
353 -> 354 ;
355 [label="gini = 0.48\nsamples = 3\nvalue = [0.0, 0.0, 0.0, 0.54, 0.0, 0.0, 0.78, 0.0, 0.0]\nclass = 7", fillcolor="#d8c2f7"] ;
353 -> 355 ;
356 [label="22 <= 0.21\ngini = 0.53\nsamples = 33\nvalue = [0.65, 12.26, 0.0, 1.07, 0.0, 0.0, 5.82, 0.0, 0.0]\nclass = 2", fillcolor="#edf3a4"] ;
274 -> 356 ;
357 [label="66 <= 0.47\ngini = 0.37\nsamples = 19\nvalue = [0.65, 10.62, 0.0, 1.07, 0.0, 0.0, 1.16, 0.0, 0.0]\nclass = 2", fillcolor="#e0eb67"] ;
356 -> 357 ;
358 [label="gini = 0.61\nsamples = 4\nvalue = [0.65, 0.0, 0.0, 1.07, 0.0, 0.0, 0.39, 0.0, 0.0]\nclass = 4", fillcolor="#c6f7da"] ;
357 -> 358 ;
359 [label="57 <= 0.13\ngini = 0.13\nsamples = 15\nvalue = [0.0, 10.62, 0.0, 0.0, 0.0, 0.0, 0.78, 0.0, 0.0]\nclass = 2", fillcolor="#dae747"] ;
357 -> 359 ;
360 [label="gini = 0.0\nsamples = 11\nvalue = [0.0, 8.99, 0.0, 0.0, 0.0, 0.0, 0.0, 0.0, 0.0]\nclass = 2", fillcolor="#d7e539"] ;
359 -> 360 ;
361 [label="gini = 0.44\nsamples = 4\nvalue = [0.0, 1.63, 0.0, 0.0, 0.0, 0.0, 0.78, 0.0, 0.0]\nclass = 2", fillcolor="#eaf197"] ;
359 -> 361 ;
362 [label="17 <= 0.65\ngini = 0.38\nsamples = 14\nvalue = [0.0, 1.63, 0.0, 0.0, 0.0, 0.0, 4.66, 0.0, 0.0]\nclass = 7", fillcolor="#ad7fee"] ;
356 -> 362 ;
363 [label="gini = 0.31\nsamples = 3\nvalue = [0.0, 1.63, 0.0, 0.0, 0.0, 0.0, 0.39, 0.0, 0.0]\nclass = 2", fillcolor="#e0eb68"] ;
362 -> 363 ;
364 [label="gini = 0.0\nsamples = 11\nvalue = [0.0, 0.0, 0.0, 0.0, 0.0, 0.0, 4.27, 0.0, 0.0]\nclass = 7", fillcolor="#8139e5"] ;
362 -> 364 ;
365 [label="gini = 0.51\nsamples = 4\nvalue = [0.65, 0.82, 4.2, 0.54, 0.0, 0.0, 0.0, 0.0, 0.0]\nclass = 3", fillcolor="#9eef83"] ;
273 -> 365 ;
366 [label="gini = 0.26\nsamples = 3\nvalue = [0.0, 0.0, 4.2, 0.0, 0.0, 0.0, 0.78, 0.0, 0.0]\nclass = 3", fillcolor="#81ea5e"] ;
272 -> 366 ;
367 [label="49 <= 0.94\ngini = 0.41\nsamples = 20\nvalue = [0.0, 0.0, 4.2, 10.2, 0.0, 0.0, 0.0, 0.0, 0.0]\nclass = 4", fillcolor="#8af0b5"] ;
235 -> 367 ;
368 [label="gini = 0.0\nsamples = 9\nvalue = [0.0, 0.0, 0.0, 4.83, 0.0, 0.0, 0.0, 0.0, 0.0]\nclass = 4", fillcolor="#39e581"] ;
367 -> 368 ;
369 [label="gini = 0.49\nsamples = 11\nvalue = [0.0, 0.0, 4.2, 5.37, 0.0, 0.0, 0.0, 0.0, 0.0]\nclass = 4", fillcolor="#d4f9e4"] ;
367 -> 369 ;
370 [label="gini = -0.0\nsamples = 12\nvalue = [7.8, 0.0, 0.0, 0.0, 0.0, 0.0, 0.0, 0.0, 0.0]\nclass = 1", fillcolor="#e58139"] ;
234 -> 370 ;
371 [label="gini = 0.19\nsamples = 3\nvalue = [0.0, 0.82, 0.0, 0.0, 0.0, 1.34, 0.0, 18.47, 0.0]\nclass = 8", fillcolor="#e84fdb"] ;
233 -> 371 ;
372 [label="37 <= 0.9\ngini = 0.16\nsamples = 10\nvalue = [0.65, 0.0, 0.0, 0.0, 0.0, 0.0, 2.72, 36.93, 0.0]\nclass = 8", fillcolor="#e74bdb"] ;
232 -> 372 ;
373 [label="gini = 0.0\nsamples = 5\nvalue = [0.0, 0.0, 0.0, 0.0, 0.0, 0.0, 1.94, 0.0, 0.0]\nclass = 7", fillcolor="#8139e5"] ;
372 -> 373 ;
374 [label="gini = 0.07\nsamples = 5\nvalue = [0.65, 0.0, 0.0, 0.0, 0.0, 0.0, 0.78, 36.93, 0.0]\nclass = 8", fillcolor="#e641d9"] ;
372 -> 374 ;
375 [label="gini = 0.34\nsamples = 3\nvalue = [0.0, 0.0, 0.0, 0.0, 0.0, 0.0, 0.0, 36.93, 10.26]\nclass = 8", fillcolor="#ec70e2"] ;
1 -> 375 ;
376 [label="gini = -0.0\nsamples = 4\nvalue = [0.0, 0.0, 0.0, 0.0, 0.0, 0.0, 0.0, 0.0, 41.04]\nclass = 9", fillcolor="#e53964"] ;
0 -> 376 [labeldistance=2.5, labelangle=-45, headlabel="False"] ;
}