digraph Tree {
node [shape=box, style="filled, rounded", color="black", fontname=helvetica] ;
edge [fontname=helvetica] ;
0 [label="mem <= 0.02\ngini = 0.89\nsamples = 831\nvalue = [92.33, 92.33, 92.33, 92.33, 92.33, 92.33, 92.33, 92.33\n92.33]\nclass = 4", fillcolor="#ffffff"] ;
1 [label="gene_SF3B1 <= 0.37\ngini = 0.88\nsamples = 781\nvalue = [89.73, 88.25, 79.74, 85.35, 87.79, 89.66, 86.13, 18.47\n92.33]\nclass = 9", fillcolor="#fffefe"] ;
0 -> 1 [labeldistance=2.5, labelangle=45, headlabel="True"] ;
2 [label="mass <= 0.11\ngini = 0.88\nsamples = 777\nvalue = [89.73, 88.25, 79.74, 85.35, 87.79, 89.66, 86.13, 18.47\n51.3]\nclass = 1", fillcolor="#ffffff"] ;
1 -> 2 ;
3 [label="multiphoton <= 0.26\ngini = 0.87\nsamples = 739\nvalue = [87.13, 83.35, 79.74, 79.99, 86.28, 86.98, 81.86, 18.47\n10.26]\nclass = 1", fillcolor="#ffffff"] ;
2 -> 3 ;
4 [label="functional <= 0.23\ngini = 0.86\nsamples = 736\nvalue = [87.13, 83.35, 79.74, 79.99, 86.28, 86.98, 81.08, 0.0\n10.26]\nclass = 1", fillcolor="#ffffff"] ;
3 -> 4 ;
5 [label="classify <= 0.3\ngini = 0.86\nsamples = 653\nvalue = [78.68, 82.53, 41.97, 64.96, 46.92, 80.29, 80.69, 0.0\n10.26]\nclass = 2", fillcolor="#fffffe"] ;
4 -> 5 ;
6 [label="mitelman <= 0.0\ngini = 0.85\nsamples = 629\nvalue = [77.38, 82.53, 41.97, 64.96, 43.9, 53.53, 80.69, 0.0\n10.26]\nclass = 2", fillcolor="#fffffe"] ;
5 -> 6 ;
7 [label="inhibitor <= 0.05\ngini = 0.85\nsamples = 626\nvalue = [77.38, 82.53, 41.97, 64.96, 43.9, 53.53, 79.92, 0.0\n0.0]\nclass = 2", fillcolor="#fffffe"] ;
6 -> 7 ;
8 [label="weekly <= 0.33\ngini = 0.83\nsamples = 373\nvalue = [69.58, 35.14, 20.98, 57.44, 24.22, 30.78, 27.93, 0.0\n0.0]\nclass = 1", fillcolor="#fdf8f3"] ;
7 -> 8 ;
9 [label="superimposition <= 0.04\ngini = 0.82\nsamples = 370\nvalue = [69.58, 34.32, 12.59, 57.44, 24.22, 30.78, 27.93, 0.0\n0.0]\nclass = 1", fillcolor="#fdf7f3"] ;
8 -> 9 ;
10 [label="activate <= 0.12\ngini = 0.81\nsamples = 348\nvalue = [66.97, 33.5, 12.59, 55.29, 22.7, 17.4, 27.16, 0.0, 0.0]\nclass = 1", fillcolor="#fdf7f2"] ;
9 -> 10 ;
11 [label="homozygosity <= 0.26\ngini = 0.77\nsamples = 274\nvalue = [61.12, 22.88, 8.39, 53.15, 16.65, 9.37, 12.8, 0.0, 0.0]\nclass = 1", fillcolor="#fdf7f3"] ;
10 -> 11 ;
12 [label="wash <= 0.14\ngini = 0.76\nsamples = 265\nvalue = [58.52, 22.88, 0.0, 51.53, 16.65, 9.37, 12.8, 0.0, 0.0]\nclass = 1", fillcolor="#fdf8f3"] ;
11 -> 12 ;
13 [label="kinase <= 0.11\ngini = 0.76\nsamples = 239\nvalue = [58.52, 22.06, 0.0, 40.26, 16.65, 8.03, 11.64, 0.0, 0.0]\nclass = 1", fillcolor="#fbebe0"] ;
12 -> 13 ;
14 [label="produce <= 0.04\ngini = 0.74\nsamples = 218\nvalue = [58.52, 14.71, 0.0, 38.65, 16.65, 8.03, 8.15, 0.0, 0.0]\nclass = 1", fillcolor="#fae7da"] ;
13 -> 14 ;
15 [label="deletion <= 0.05\ngini = 0.68\nsamples = 166\nvalue = [50.07, 8.17, 0.0, 30.06, 3.03, 8.03, 5.82, 0.0, 0.0]\nclass = 1", fillcolor="#f8ddca"] ;
14 -> 15 ;
16 [label="gene_BRCA1 <= 1.0\ngini = 0.73\nsamples = 117\nvalue = [26.66, 7.35, 0.0, 24.69, 1.51, 8.03, 5.43, 0.0, 0.0]\nclass = 1", fillcolor="#fefaf7"] ;
15 -> 16 ;
17 [label="entity <= 0.02\ngini = 0.71\nsamples = 113\nvalue = [26.01, 7.35, 0.0, 24.69, 1.51, 4.01, 5.43, 0.0, 0.0]\nclass = 1", fillcolor="#fefbf9"] ;
16 -> 17 ;
18 [label="uv <= 0.07\ngini = 0.67\nsamples = 102\nvalue = [26.01, 4.09, 0.0, 24.69, 1.51, 4.01, 2.72, 0.0, 0.0]\nclass = 1", fillcolor="#fefbf8"] ;
17 -> 18 ;
19 [label="pleural <= 0.08\ngini = 0.68\nsamples = 92\nvalue = [20.16, 4.09, 0.0, 24.16, 1.51, 4.01, 2.72, 0.0, 0.0]\nclass = 4", fillcolor="#e9fcf1"] ;
18 -> 19 ;
20 [label="serum <= 0.04\ngini = 0.65\nsamples = 89\nvalue = [20.16, 1.63, 0.0, 24.16, 1.51, 4.01, 2.72, 0.0, 0.0]\nclass = 4", fillcolor="#e8fcf0"] ;
19 -> 20 ;
21 [label="provide <= 0.03\ngini = 0.66\nsamples = 77\nvalue = [20.16, 1.63, 0.0, 18.79, 1.51, 4.01, 1.94, 0.0, 0.0]\nclass = 1", fillcolor="#fef9f6"] ;
20 -> 21 ;
22 [label="specific <= 0.07\ngini = 0.78\nsamples = 16\nvalue = [3.25, 1.63, 0.0, 2.15, 1.51, 4.01, 0.39, 0.0, 0.0]\nclass = 6", fillcolor="#eff3fd"] ;
21 -> 22 ;
23 [label="point <= 0.08\ngini = 0.69\nsamples = 9\nvalue = [0.0, 1.63, 0.0, 2.15, 0.0, 2.68, 0.39, 0.0, 0.0]\nclass = 6", fillcolor="#e9eefc"] ;
22 -> 23 ;
24 [label="number <= 0.01\ngini = 0.49\nsamples = 6\nvalue = [0.0, 0.0, 0.0, 2.15, 0.0, 2.68, 0.0, 0.0, 0.0]\nclass = 6", fillcolor="#d8e0fa"] ;
23 -> 24 ;
25 [label="gini = 0.28\nsamples = 3\nvalue = [0.0, 0.0, 0.0, 0.54, 0.0, 2.68, 0.0, 0.0, 0.0]\nclass = 6", fillcolor="#6183ea"] ;
24 -> 25 ;
26 [label="gini = -0.0\nsamples = 3\nvalue = [0.0, 0.0, 0.0, 1.61, 0.0, 0.0, 0.0, 0.0, 0.0]\nclass = 4", fillcolor="#39e581"] ;
24 -> 26 ;
27 [label="gini = 0.31\nsamples = 3\nvalue = [0.0, 1.63, 0.0, 0.0, 0.0, 0.0, 0.39, 0.0, 0.0]\nclass = 2", fillcolor="#e0eb68"] ;
23 -> 27 ;
28 [label="hour <= 0.0\ngini = 0.61\nsamples = 7\nvalue = [3.25, 0.0, 0.0, 0.0, 1.51, 1.34, 0.0, 0.0, 0.0]\nclass = 1", fillcolor="#f5cfb4"] ;
22 -> 28 ;
29 [label="gini = 0.48\nsamples = 4\nvalue = [1.95, 0.0, 0.0, 0.0, 0.0, 1.34, 0.0, 0.0, 0.0]\nclass = 1", fillcolor="#f7d7c1"] ;
28 -> 29 ;
30 [label="gini = 0.5\nsamples = 3\nvalue = [1.3, 0.0, 0.0, 0.0, 1.51, 0.0, 0.0, 0.0, 0.0]\nclass = 5", fillcolor="#e3f9fb"] ;
28 -> 30 ;
31 [label="hospital <= 0.02\ngini = 0.54\nsamples = 61\nvalue = [16.91, 0.0, 0.0, 16.64, 0.0, 0.0, 1.55, 0.0, 0.0]\nclass = 1", fillcolor="#fffdfc"] ;
21 -> 31 ;
32 [label="immunoprecipitate <= 0.01\ngini = 0.52\nsamples = 48\nvalue = [16.26, 0.0, 0.0, 10.74, 0.0, 0.0, 1.16, 0.0, 0.0]\nclass = 1", fillcolor="#f7d7c0"] ;
31 -> 32 ;
33 [label="among <= 0.03\ngini = 0.49\nsamples = 43\nvalue = [16.26, 0.0, 0.0, 8.05, 0.0, 0.0, 1.16, 0.0, 0.0]\nclass = 1", fillcolor="#f3c4a2"] ;
32 -> 33 ;
34 [label="pellet <= 0.05\ngini = 0.37\nsamples = 29\nvalue = [13.65, 0.0, 0.0, 3.22, 0.0, 0.0, 0.78, 0.0, 0.0]\nclass = 1", fillcolor="#eca470"] ;
33 -> 34 ;
35 [label="muscle <= 0.0\ngini = 0.27\nsamples = 26\nvalue = [13.65, 0.0, 0.0, 2.15, 0.0, 0.0, 0.39, 0.0, 0.0]\nclass = 1", fillcolor="#ea985d"] ;
34 -> 35 ;
36 [label="substitution <= 0.08\ngini = 0.14\nsamples = 22\nvalue = [13.0, 0.0, 0.0, 1.07, 0.0, 0.0, 0.0, 0.0, 0.0]\nclass = 1", fillcolor="#e78b49"] ;
35 -> 36 ;
37 [label="gini = -0.0\nsamples = 16\nvalue = [10.4, 0.0, 0.0, 0.0, 0.0, 0.0, 0.0, 0.0, 0.0]\nclass = 1", fillcolor="#e58139"] ;
36 -> 37 ;
38 [label="gini = 0.41\nsamples = 6\nvalue = [2.6, 0.0, 0.0, 1.07, 0.0, 0.0, 0.0, 0.0, 0.0]\nclass = 1", fillcolor="#f0b58b"] ;
36 -> 38 ;
39 [label="gini = 0.61\nsamples = 4\nvalue = [0.65, 0.0, 0.0, 1.07, 0.0, 0.0, 0.39, 0.0, 0.0]\nclass = 4", fillcolor="#c6f7da"] ;
35 -> 39 ;
40 [label="gini = 0.39\nsamples = 3\nvalue = [0.0, 0.0, 0.0, 1.07, 0.0, 0.0, 0.39, 0.0, 0.0]\nclass = 4", fillcolor="#81eeaf"] ;
34 -> 40 ;
41 [label="contains <= 0.04\ngini = 0.51\nsamples = 14\nvalue = [2.6, 0.0, 0.0, 4.83, 0.0, 0.0, 0.39, 0.0, 0.0]\nclass = 4", fillcolor="#aaf4c9"] ;
33 -> 41 ;
42 [label="gini = 0.0\nsamples = 6\nvalue = [0.0, 0.0, 0.0, 3.22, 0.0, 0.0, 0.0, 0.0, 0.0]\nclass = 4", fillcolor="#39e581"] ;
41 -> 42 ;
43 [label="little <= 0.02\ngini = 0.55\nsamples = 8\nvalue = [2.6, 0.0, 0.0, 1.61, 0.0, 0.0, 0.39, 0.0, 0.0]\nclass = 1", fillcolor="#f6d5bd"] ;
41 -> 43 ;
44 [label="gini = 0.35\nsamples = 3\nvalue = [1.3, 0.0, 0.0, 0.0, 0.0, 0.0, 0.39, 0.0, 0.0]\nclass = 1", fillcolor="#eda774"] ;
43 -> 44 ;
45 [label="gini = 0.49\nsamples = 5\nvalue = [1.3, 0.0, 0.0, 1.61, 0.0, 0.0, 0.0, 0.0, 0.0]\nclass = 4", fillcolor="#d9fae7"] ;
43 -> 45 ;
46 [label="gini = -0.0\nsamples = 5\nvalue = [0.0, 0.0, 0.0, 2.68, 0.0, 0.0, 0.0, 0.0, 0.0]\nclass = 4", fillcolor="#39e581"] ;
32 -> 46 ;
47 [label="formation <= 0.12\ngini = 0.26\nsamples = 13\nvalue = [0.65, 0.0, 0.0, 5.91, 0.0, 0.0, 0.39, 0.0, 0.0]\nclass = 4", fillcolor="#5ae996"] ;
31 -> 47 ;
48 [label="gini = 0.0\nsamples = 9\nvalue = [0.0, 0.0, 0.0, 4.83, 0.0, 0.0, 0.0, 0.0, 0.0]\nclass = 4", fillcolor="#39e581"] ;
47 -> 48 ;
49 [label="gini = 0.61\nsamples = 4\nvalue = [0.65, 0.0, 0.0, 1.07, 0.0, 0.0, 0.39, 0.0, 0.0]\nclass = 4", fillcolor="#c6f7da"] ;
47 -> 49 ;
50 [label="weight <= 0.0\ngini = 0.22\nsamples = 12\nvalue = [0.0, 0.0, 0.0, 5.37, 0.0, 0.0, 0.78, 0.0, 0.0]\nclass = 4", fillcolor="#56e993"] ;
20 -> 50 ;
51 [label="gini = 0.0\nsamples = 9\nvalue = [0.0, 0.0, 0.0, 4.83, 0.0, 0.0, 0.0, 0.0, 0.0]\nclass = 4", fillcolor="#39e581"] ;
50 -> 51 ;
52 [label="gini = 0.48\nsamples = 3\nvalue = [0.0, 0.0, 0.0, 0.54, 0.0, 0.0, 0.78, 0.0, 0.0]\nclass = 7", fillcolor="#d8c2f7"] ;
50 -> 52 ;
53 [label="gini = 0.0\nsamples = 3\nvalue = [0.0, 2.45, 0.0, 0.0, 0.0, 0.0, 0.0, 0.0, 0.0]\nclass = 2", fillcolor="#d7e539"] ;
19 -> 53 ;
54 [label="interface <= 0.01\ngini = 0.15\nsamples = 10\nvalue = [5.85, 0.0, 0.0, 0.54, 0.0, 0.0, 0.0, 0.0, 0.0]\nclass = 1", fillcolor="#e78d4b"] ;
18 -> 54 ;
55 [label="gini = 0.0\nsamples = 7\nvalue = [4.55, 0.0, 0.0, 0.0, 0.0, 0.0, 0.0, 0.0, 0.0]\nclass = 1", fillcolor="#e58139"] ;
54 -> 55 ;
56 [label="gini = 0.41\nsamples = 3\nvalue = [1.3, 0.0, 0.0, 0.54, 0.0, 0.0, 0.0, 0.0, 0.0]\nclass = 1", fillcolor="#f0b58b"] ;
54 -> 56 ;
57 [label="promote <= 0.04\ngini = 0.5\nsamples = 11\nvalue = [0.0, 3.27, 0.0, 0.0, 0.0, 0.0, 2.72, 0.0, 0.0]\nclass = 2", fillcolor="#f8fbde"] ;
17 -> 57 ;
58 [label="gini = 0.19\nsamples = 5\nvalue = [0.0, 3.27, 0.0, 0.0, 0.0, 0.0, 0.39, 0.0, 0.0]\nclass = 2", fillcolor="#dce851"] ;
57 -> 58 ;
59 [label="gini = 0.0\nsamples = 6\nvalue = [0.0, 0.0, 0.0, 0.0, 0.0, 0.0, 2.33, 0.0, 0.0]\nclass = 7", fillcolor="#8139e5"] ;
57 -> 59 ;
60 [label="gini = 0.24\nsamples = 4\nvalue = [0.65, 0.0, 0.0, 0.0, 0.0, 4.01, 0.0, 0.0, 0.0]\nclass = 6", fillcolor="#597de9"] ;
16 -> 60 ;
61 [label="unidentified <= 0.06\ngini = 0.42\nsamples = 49\nvalue = [23.41, 0.82, 0.0, 5.37, 1.51, 0.0, 0.39, 0.0, 0.0]\nclass = 1", fillcolor="#eda876"] ;
15 -> 61 ;
62 [label="brown <= 0.03\ngini = 0.33\nsamples = 44\nvalue = [23.41, 0.82, 0.0, 2.68, 1.51, 0.0, 0.39, 0.0, 0.0]\nclass = 1", fillcolor="#ea9b62"] ;
61 -> 62 ;
63 [label="hepatocellular <= 0.01\ngini = 0.24\nsamples = 41\nvalue = [23.41, 0.0, 0.0, 1.61, 1.51, 0.0, 0.39, 0.0, 0.0]\nclass = 1", fillcolor="#e99254"] ;
62 -> 63 ;
64 [label="induces <= 0.22\ngini = 0.12\nsamples = 36\nvalue = [22.76, 0.0, 0.0, 0.0, 1.51, 0.0, 0.0, 0.0, 0.0]\nclass = 1", fillcolor="#e78946"] ;
63 -> 64 ;
65 [label="gini = 0.0\nsamples = 33\nvalue = [21.46, 0.0, 0.0, 0.0, 0.0, 0.0, 0.0, 0.0, 0.0]\nclass = 1", fillcolor="#e58139"] ;
64 -> 65 ;
66 [label="gini = 0.5\nsamples = 3\nvalue = [1.3, 0.0, 0.0, 0.0, 1.51, 0.0, 0.0, 0.0, 0.0]\nclass = 5", fillcolor="#e3f9fb"] ;
64 -> 66 ;
67 [label="gini = 0.55\nsamples = 5\nvalue = [0.65, 0.0, 0.0, 1.61, 0.0, 0.0, 0.39, 0.0, 0.0]\nclass = 4", fillcolor="#a0f3c2"] ;
63 -> 67 ;
68 [label="gini = 0.49\nsamples = 3\nvalue = [0.0, 0.82, 0.0, 1.07, 0.0, 0.0, 0.0, 0.0, 0.0]\nclass = 4", fillcolor="#d0f9e1"] ;
62 -> 68 ;
69 [label="gini = -0.0\nsamples = 5\nvalue = [0.0, 0.0, 0.0, 2.68, 0.0, 0.0, 0.0, 0.0, 0.0]\nclass = 4", fillcolor="#39e581"] ;
61 -> 69 ;
70 [label="yield <= 0.06\ngini = 0.76\nsamples = 52\nvalue = [8.45, 6.54, 0.0, 8.59, 13.62, 0.0, 2.33, 0.0, 0.0]\nclass = 5", fillcolor="#dff8fb"] ;
14 -> 70 ;
71 [label="real <= 0.01\ngini = 0.72\nsamples = 37\nvalue = [1.95, 4.9, 0.0, 7.52, 12.11, 0.0, 2.33, 0.0, 0.0]\nclass = 5", fillcolor="#d4f6f9"] ;
70 -> 71 ;
72 [label="development <= 0.07\ngini = 0.6\nsamples = 23\nvalue = [1.95, 0.0, 0.0, 5.37, 10.6, 0.0, 1.16, 0.0, 0.0]\nclass = 5", fillcolor="#b4f0f5"] ;
71 -> 72 ;
73 [label="multi <= 0.02\ngini = 0.51\nsamples = 17\nvalue = [1.95, 0.0, 0.0, 2.15, 10.6, 0.0, 1.16, 0.0, 0.0]\nclass = 5", fillcolor="#85e6ef"] ;
72 -> 73 ;
74 [label="sd <= 0.04\ngini = 0.38\nsamples = 13\nvalue = [0.65, 0.0, 0.0, 2.15, 10.6, 0.0, 0.39, 0.0, 0.0]\nclass = 5", fillcolor="#6fe2ec"] ;
73 -> 74 ;
75 [label="propose <= 0.08\ngini = 0.62\nsamples = 7\nvalue = [0.65, 0.0, 0.0, 1.61, 3.03, 0.0, 0.39, 0.0, 0.0]\nclass = 5", fillcolor="#baf1f6"] ;
74 -> 75 ;
76 [label="gini = 0.67\nsamples = 4\nvalue = [0.65, 0.0, 0.0, 0.54, 1.51, 0.0, 0.39, 0.0, 0.0]\nclass = 5", fillcolor="#b9f1f6"] ;
75 -> 76 ;
77 [label="gini = 0.49\nsamples = 3\nvalue = [0.0, 0.0, 0.0, 1.07, 1.51, 0.0, 0.0, 0.0, 0.0]\nclass = 5", fillcolor="#c5f3f7"] ;
75 -> 77 ;
78 [label="form <= 0.17\ngini = 0.12\nsamples = 6\nvalue = [0.0, 0.0, 0.0, 0.54, 7.57, 0.0, 0.0, 0.0, 0.0]\nclass = 5", fillcolor="#47dae7"] ;
74 -> 78 ;
79 [label="gini = 0.26\nsamples = 3\nvalue = [0.0, 0.0, 0.0, 0.54, 3.03, 0.0, 0.0, 0.0, 0.0]\nclass = 5", fillcolor="#5cdeea"] ;
78 -> 79 ;
80 [label="gini = -0.0\nsamples = 3\nvalue = [0.0, 0.0, 0.0, 0.0, 4.54, 0.0, 0.0, 0.0, 0.0]\nclass = 5", fillcolor="#39d7e5"] ;
78 -> 80 ;
81 [label="gini = 0.47\nsamples = 4\nvalue = [1.3, 0.0, 0.0, 0.0, 0.0, 0.0, 0.78, 0.0, 0.0]\nclass = 1", fillcolor="#f5ccaf"] ;
73 -> 81 ;
82 [label="gini = -0.0\nsamples = 6\nvalue = [0.0, 0.0, 0.0, 3.22, 0.0, 0.0, 0.0, 0.0, 0.0]\nclass = 4", fillcolor="#39e581"] ;
72 -> 82 ;
83 [label="loss <= 0.06\ngini = 0.66\nsamples = 14\nvalue = [0.0, 4.9, 0.0, 2.15, 1.51, 0.0, 1.16, 0.0, 0.0]\nclass = 2", fillcolor="#f0f6b7"] ;
71 -> 83 ;
84 [label="employ <= 0.15\ngini = 0.52\nsamples = 10\nvalue = [0.0, 4.9, 0.0, 0.0, 1.51, 0.0, 1.16, 0.0, 0.0]\nclass = 2", fillcolor="#e9f090"] ;
83 -> 84 ;
85 [label="gini = 0.48\nsamples = 4\nvalue = [0.0, 0.82, 0.0, 0.0, 0.0, 0.0, 1.16, 0.0, 0.0]\nclass = 7", fillcolor="#d9c4f7"] ;
84 -> 85 ;
86 [label="gini = 0.39\nsamples = 6\nvalue = [0.0, 4.09, 0.0, 0.0, 1.51, 0.0, 0.0, 0.0, 0.0]\nclass = 2", fillcolor="#e6ef82"] ;
84 -> 86 ;
87 [label="gini = 0.0\nsamples = 4\nvalue = [0.0, 0.0, 0.0, 2.15, 0.0, 0.0, 0.0, 0.0, 0.0]\nclass = 4", fillcolor="#39e581"] ;
83 -> 87 ;
88 [label="quantitative <= 0.06\ngini = 0.58\nsamples = 15\nvalue = [6.5, 1.63, 0.0, 1.07, 1.51, 0.0, 0.0, 0.0, 0.0]\nclass = 1", fillcolor="#f1bc95"] ;
70 -> 88 ;
89 [label="gini = -0.0\nsamples = 10\nvalue = [6.5, 0.0, 0.0, 0.0, 0.0, 0.0, 0.0, 0.0, 0.0]\nclass = 1", fillcolor="#e58139"] ;
88 -> 89 ;
90 [label="gini = 0.66\nsamples = 5\nvalue = [0.0, 1.63, 0.0, 1.07, 1.51, 0.0, 0.0, 0.0, 0.0]\nclass = 2", fillcolor="#fdfef6"] ;
88 -> 90 ;
91 [label="buffer <= 0.01\ngini = 0.56\nsamples = 21\nvalue = [0.0, 7.35, 0.0, 1.61, 0.0, 0.0, 3.49, 0.0, 0.0]\nclass = 2", fillcolor="#eef4aa"] ;
13 -> 91 ;
92 [label="generation <= 0.02\ngini = 0.32\nsamples = 13\nvalue = [0.0, 7.35, 0.0, 0.54, 0.0, 0.0, 1.16, 0.0, 0.0]\nclass = 2", fillcolor="#e0eb64"] ;
91 -> 92 ;
93 [label="possible <= 0.01\ngini = 0.1\nsamples = 10\nvalue = [0.0, 7.35, 0.0, 0.0, 0.0, 0.0, 0.39, 0.0, 0.0]\nclass = 2", fillcolor="#d9e643"] ;
92 -> 93 ;
94 [label="gini = 0.31\nsamples = 3\nvalue = [0.0, 1.63, 0.0, 0.0, 0.0, 0.0, 0.39, 0.0, 0.0]\nclass = 2", fillcolor="#e0eb68"] ;
93 -> 94 ;
95 [label="gini = -0.0\nsamples = 7\nvalue = [0.0, 5.72, 0.0, 0.0, 0.0, 0.0, 0.0, 0.0, 0.0]\nclass = 2", fillcolor="#d7e539"] ;
93 -> 95 ;
96 [label="gini = 0.48\nsamples = 3\nvalue = [0.0, 0.0, 0.0, 0.54, 0.0, 0.0, 0.78, 0.0, 0.0]\nclass = 7", fillcolor="#d8c2f7"] ;
92 -> 96 ;
97 [label="form <= 0.05\ngini = 0.43\nsamples = 8\nvalue = [0.0, 0.0, 0.0, 1.07, 0.0, 0.0, 2.33, 0.0, 0.0]\nclass = 7", fillcolor="#bb94f1"] ;
91 -> 97 ;
98 [label="gini = 0.39\nsamples = 3\nvalue = [0.0, 0.0, 0.0, 1.07, 0.0, 0.0, 0.39, 0.0, 0.0]\nclass = 4", fillcolor="#81eeaf"] ;
97 -> 98 ;
99 [label="gini = -0.0\nsamples = 5\nvalue = [0.0, 0.0, 0.0, 0.0, 0.0, 0.0, 1.94, 0.0, 0.0]\nclass = 7", fillcolor="#8139e5"] ;
97 -> 99 ;
100 [label="fashion <= 0.0\ngini = 0.39\nsamples = 26\nvalue = [0.0, 0.82, 0.0, 11.27, 0.0, 1.34, 1.16, 0.0, 0.0]\nclass = 4", fillcolor="#6beca1"] ;
12 -> 100 ;
101 [label="complex <= 0.1\ngini = 0.12\nsamples = 23\nvalue = [0.0, 0.0, 0.0, 11.27, 0.0, 0.0, 0.78, 0.0, 0.0]\nclass = 4", fillcolor="#47e78a"] ;
100 -> 101 ;
102 [label="gini = 0.0\nsamples = 20\nvalue = [0.0, 0.0, 0.0, 10.74, 0.0, 0.0, 0.0, 0.0, 0.0]\nclass = 4", fillcolor="#39e581"] ;
101 -> 102 ;
103 [label="gini = 0.48\nsamples = 3\nvalue = [0.0, 0.0, 0.0, 0.54, 0.0, 0.0, 0.78, 0.0, 0.0]\nclass = 7", fillcolor="#d8c2f7"] ;
101 -> 103 ;
104 [label="gini = 0.6\nsamples = 3\nvalue = [0.0, 0.82, 0.0, 0.0, 0.0, 1.34, 0.39, 0.0, 0.0]\nclass = 6", fillcolor="#c3d0f7"] ;
100 -> 104 ;
105 [label="manifest <= 0.07\ngini = 0.5\nsamples = 9\nvalue = [2.6, 0.0, 8.39, 1.61, 0.0, 0.0, 0.0, 0.0, 0.0]\nclass = 3", fillcolor="#a5f08c"] ;
11 -> 105 ;
106 [label="maternal <= 0.19\ngini = 0.5\nsamples = 6\nvalue = [1.95, 0.0, 0.0, 1.61, 0.0, 0.0, 0.0, 0.0, 0.0]\nclass = 1", fillcolor="#fae9dc"] ;
105 -> 106 ;
107 [label="gini = 0.0\nsamples = 3\nvalue = [1.95, 0.0, 0.0, 0.0, 0.0, 0.0, 0.0, 0.0, 0.0]\nclass = 1", fillcolor="#e58139"] ;
106 -> 107 ;
108 [label="gini = 0.0\nsamples = 3\nvalue = [0.0, 0.0, 0.0, 1.61, 0.0, 0.0, 0.0, 0.0, 0.0]\nclass = 4", fillcolor="#39e581"] ;
106 -> 108 ;
109 [label="gini = 0.13\nsamples = 3\nvalue = [0.65, 0.0, 8.39, 0.0, 0.0, 0.0, 0.0, 0.0, 0.0]\nclass = 3", fillcolor="#70e748"] ;
105 -> 109 ;
110 [label="nicely <= 0.46\ngini = 0.82\nsamples = 74\nvalue = [5.85, 10.62, 4.2, 2.15, 6.05, 8.03, 14.35, 0.0, 0.0]\nclass = 7", fillcolor="#f3edfd"] ;
10 -> 110 ;
111 [label="empty <= 0.04\ngini = 0.79\nsamples = 71\nvalue = [5.85, 10.62, 0.0, 1.61, 6.05, 8.03, 13.97, 0.0, 0.0]\nclass = 7", fillcolor="#f3ecfd"] ;
110 -> 111 ;
112 [label="potentially <= 0.11\ngini = 0.69\nsamples = 49\nvalue = [4.55, 8.99, 0.0, 1.07, 1.51, 0.0, 10.86, 0.0, 0.0]\nclass = 7", fillcolor="#f2eafc"] ;
111 -> 112 ;
113 [label="data <= 0.23\ngini = 0.64\nsamples = 43\nvalue = [1.3, 8.17, 0.0, 1.07, 1.51, 0.0, 10.86, 0.0, 0.0]\nclass = 7", fillcolor="#e8dbfa"] ;
112 -> 113 ;
114 [label="representation <= 0.09\ngini = 0.61\nsamples = 38\nvalue = [1.3, 4.09, 0.0, 1.07, 1.51, 0.0, 10.86, 0.0, 0.0]\nclass = 7", fillcolor="#c5a4f3"] ;
113 -> 114 ;
115 [label="miss <= 0.05\ngini = 0.45\nsamples = 33\nvalue = [1.3, 1.63, 0.0, 1.07, 0.0, 0.0, 10.47, 0.0, 0.0]\nclass = 7", fillcolor="#a877ed"] ;
114 -> 115 ;
116 [label="effectively <= 0.06\ngini = 0.26\nsamples = 29\nvalue = [0.65, 0.0, 0.0, 1.07, 0.0, 0.0, 10.09, 0.0, 0.0]\nclass = 7", fillcolor="#9559e9"] ;
115 -> 116 ;
117 [label="aggressive <= 0.11\ngini = 0.12\nsamples = 26\nvalue = [0.65, 0.0, 0.0, 0.0, 0.0, 0.0, 9.7, 0.0, 0.0]\nclass = 7", fillcolor="#8946e7"] ;
116 -> 117 ;
118 [label="gini = 0.0\nsamples = 23\nvalue = [0.0, 0.0, 0.0, 0.0, 0.0, 0.0, 8.92, 0.0, 0.0]\nclass = 7", fillcolor="#8139e5"] ;
117 -> 118 ;
119 [label="gini = 0.5\nsamples = 3\nvalue = [0.65, 0.0, 0.0, 0.0, 0.0, 0.0, 0.78, 0.0, 0.0]\nclass = 7", fillcolor="#ebdffb"] ;
117 -> 119 ;
120 [label="gini = 0.39\nsamples = 3\nvalue = [0.0, 0.0, 0.0, 1.07, 0.0, 0.0, 0.39, 0.0, 0.0]\nclass = 4", fillcolor="#81eeaf"] ;
116 -> 120 ;
121 [label="gini = 0.55\nsamples = 4\nvalue = [0.65, 1.63, 0.0, 0.0, 0.0, 0.0, 0.39, 0.0, 0.0]\nclass = 2", fillcolor="#ecf29f"] ;
115 -> 121 ;
122 [label="gini = 0.55\nsamples = 5\nvalue = [0.0, 2.45, 0.0, 0.0, 1.51, 0.0, 0.39, 0.0, 0.0]\nclass = 2", fillcolor="#f2f6be"] ;
114 -> 122 ;
123 [label="gini = 0.0\nsamples = 5\nvalue = [0.0, 4.09, 0.0, 0.0, 0.0, 0.0, 0.0, 0.0, 0.0]\nclass = 2", fillcolor="#d7e539"] ;
113 -> 123 ;
124 [label="sequesters <= 0.54\ngini = 0.32\nsamples = 6\nvalue = [3.25, 0.82, 0.0, 0.0, 0.0, 0.0, 0.0, 0.0, 0.0]\nclass = 1", fillcolor="#eca16b"] ;
112 -> 124 ;
125 [label="gini = 0.0\nsamples = 3\nvalue = [1.95, 0.0, 0.0, 0.0, 0.0, 0.0, 0.0, 0.0, 0.0]\nclass = 1", fillcolor="#e58139"] ;
124 -> 125 ;
126 [label="gini = 0.47\nsamples = 3\nvalue = [1.3, 0.82, 0.0, 0.0, 0.0, 0.0, 0.0, 0.0, 0.0]\nclass = 1", fillcolor="#f5d0b5"] ;
124 -> 126 ;
127 [label="help <= 0.0\ngini = 0.73\nsamples = 22\nvalue = [1.3, 1.63, 0.0, 0.54, 4.54, 8.03, 3.1, 0.0, 0.0]\nclass = 6", fillcolor="#d0daf9"] ;
111 -> 127 ;
128 [label="equivalent <= 0.01\ngini = 0.66\nsamples = 17\nvalue = [1.3, 1.63, 0.0, 0.54, 0.0, 6.69, 2.72, 0.0, 0.0]\nclass = 6", fillcolor="#b2c2f5"] ;
127 -> 128 ;
129 [label="human <= 0.11\ngini = 0.61\nsamples = 7\nvalue = [0.0, 1.63, 0.0, 0.54, 0.0, 0.0, 1.55, 0.0, 0.0]\nclass = 2", fillcolor="#fdfef7"] ;
128 -> 129 ;
130 [label="gini = -0.0\nsamples = 4\nvalue = [0.0, 0.0, 0.0, 0.0, 0.0, 0.0, 1.55, 0.0, 0.0]\nclass = 7", fillcolor="#8139e5"] ;
129 -> 130 ;
131 [label="gini = 0.37\nsamples = 3\nvalue = [0.0, 1.63, 0.0, 0.54, 0.0, 0.0, 0.0, 0.0, 0.0]\nclass = 2", fillcolor="#e4ee7a"] ;
129 -> 131 ;
132 [label="many <= 0.05\ngini = 0.43\nsamples = 10\nvalue = [1.3, 0.0, 0.0, 0.0, 0.0, 6.69, 1.16, 0.0, 0.0]\nclass = 6", fillcolor="#7795ed"] ;
128 -> 132 ;
133 [label="gini = 0.0\nsamples = 3\nvalue = [0.0, 0.0, 0.0, 0.0, 0.0, 0.0, 1.16, 0.0, 0.0]\nclass = 7", fillcolor="#8139e5"] ;
132 -> 133 ;
134 [label="arrangement <= 0.06\ngini = 0.27\nsamples = 7\nvalue = [1.3, 0.0, 0.0, 0.0, 0.0, 6.69, 0.0, 0.0, 0.0]\nclass = 6", fillcolor="#5f82ea"] ;
132 -> 134 ;
135 [label="gini = 0.0\nsamples = 3\nvalue = [0.0, 0.0, 0.0, 0.0, 0.0, 4.01, 0.0, 0.0, 0.0]\nclass = 6", fillcolor="#3964e5"] ;
134 -> 135 ;
136 [label="gini = 0.44\nsamples = 4\nvalue = [1.3, 0.0, 0.0, 0.0, 0.0, 2.68, 0.0, 0.0, 0.0]\nclass = 6", fillcolor="#99aff2"] ;
134 -> 136 ;
137 [label="gini = 0.43\nsamples = 5\nvalue = [0.0, 0.0, 0.0, 0.0, 4.54, 1.34, 0.39, 0.0, 0.0]\nclass = 5", fillcolor="#7ee5ee"] ;
127 -> 137 ;
138 [label="gini = 0.31\nsamples = 3\nvalue = [0.0, 0.0, 4.2, 0.54, 0.0, 0.0, 0.39, 0.0, 0.0]\nclass = 3", fillcolor="#83ea61"] ;
110 -> 138 ;
139 [label="yield <= 0.03\ngini = 0.57\nsamples = 22\nvalue = [2.6, 0.82, 0.0, 2.15, 1.51, 13.38, 0.78, 0.0, 0.0]\nclass = 6", fillcolor="#8ca5f0"] ;
9 -> 139 ;
140 [label="list <= 0.02\ngini = 0.42\nsamples = 16\nvalue = [2.6, 0.0, 0.0, 0.54, 1.51, 13.38, 0.0, 0.0, 0.0]\nclass = 6", fillcolor="#7593ed"] ;
139 -> 140 ;
141 [label="interdigitate <= 0.97\ngini = 0.58\nsamples = 9\nvalue = [2.6, 0.0, 0.0, 0.0, 1.51, 5.35, 0.0, 0.0, 0.0]\nclass = 6", fillcolor="#b0c1f5"] ;
140 -> 141 ;
142 [label="gini = 0.65\nsamples = 6\nvalue = [1.95, 0.0, 0.0, 0.0, 1.51, 2.68, 0.0, 0.0, 0.0]\nclass = 6", fillcolor="#dde4fa"] ;
141 -> 142 ;
143 [label="gini = 0.31\nsamples = 3\nvalue = [0.65, 0.0, 0.0, 0.0, 0.0, 2.68, 0.0, 0.0, 0.0]\nclass = 6", fillcolor="#698aeb"] ;
141 -> 143 ;
144 [label="therapeutic <= 0.01\ngini = 0.12\nsamples = 7\nvalue = [0.0, 0.0, 0.0, 0.54, 0.0, 8.03, 0.0, 0.0, 0.0]\nclass = 6", fillcolor="#466ee7"] ;
140 -> 144 ;
145 [label="gini = 0.28\nsamples = 3\nvalue = [0.0, 0.0, 0.0, 0.54, 0.0, 2.68, 0.0, 0.0, 0.0]\nclass = 6", fillcolor="#6183ea"] ;
144 -> 145 ;
146 [label="gini = -0.0\nsamples = 4\nvalue = [0.0, 0.0, 0.0, 0.0, 0.0, 5.35, 0.0, 0.0, 0.0]\nclass = 6", fillcolor="#3964e5"] ;
144 -> 146 ;
147 [label="color <= 0.0\ngini = 0.62\nsamples = 6\nvalue = [0.0, 0.82, 0.0, 1.61, 0.0, 0.0, 0.78, 0.0, 0.0]\nclass = 4", fillcolor="#bdf6d5"] ;
139 -> 147 ;
148 [label="gini = 0.0\nsamples = 3\nvalue = [0.0, 0.0, 0.0, 1.61, 0.0, 0.0, 0.0, 0.0, 0.0]\nclass = 4", fillcolor="#39e581"] ;
147 -> 148 ;
149 [label="gini = 0.5\nsamples = 3\nvalue = [0.0, 0.82, 0.0, 0.0, 0.0, 0.0, 0.78, 0.0, 0.0]\nclass = 2", fillcolor="#fdfef5"] ;
147 -> 149 ;
150 [label="gini = 0.16\nsamples = 3\nvalue = [0.0, 0.82, 8.39, 0.0, 0.0, 0.0, 0.0, 0.0, 0.0]\nclass = 3", fillcolor="#73e84c"] ;
8 -> 150 ;
151 [label="taconic <= 0.43\ngini = 0.8\nsamples = 253\nvalue = [7.8, 47.39, 20.98, 7.52, 19.68, 22.75, 51.99, 0.0, 0.0]\nclass = 7", fillcolor="#fbf8fe"] ;
7 -> 151 ;
152 [label="dephosphorylating <= 0.1\ngini = 0.79\nsamples = 247\nvalue = [7.8, 47.39, 12.59, 7.52, 19.68, 22.75, 50.43, 0.0, 0.0]\nclass = 7", fillcolor="#fcfafe"] ;
151 -> 152 ;
153 [label="enlarge <= 0.18\ngini = 0.78\nsamples = 242\nvalue = [7.8, 47.39, 12.59, 7.52, 19.68, 16.06, 50.43, 0.0, 0.0]\nclass = 7", fillcolor="#fcfafe"] ;
152 -> 153 ;
154 [label="promise <= 0.14\ngini = 0.76\nsamples = 236\nvalue = [7.8, 46.58, 4.2, 7.52, 19.68, 16.06, 49.27, 0.0, 0.0]\nclass = 7", fillcolor="#fcfafe"] ;
153 -> 154 ;
155 [label="molecular <= 0.12\ngini = 0.75\nsamples = 228\nvalue = [7.8, 45.76, 4.2, 7.52, 12.11, 16.06, 48.49, 0.0, 0.0]\nclass = 7", fillcolor="#fbf9fe"] ;
154 -> 155 ;
156 [label="pfa <= 0.07\ngini = 0.77\nsamples = 163\nvalue = [7.15, 22.06, 4.2, 7.52, 6.05, 14.72, 36.86, 0.0, 0.0]\nclass = 7", fillcolor="#e7d9fa"] ;
155 -> 156 ;
157 [label="delete <= 0.03\ngini = 0.75\nsamples = 160\nvalue = [7.15, 22.06, 0.0, 7.52, 4.54, 14.72, 36.47, 0.0, 0.0]\nclass = 7", fillcolor="#e5d6fa"] ;
156 -> 157 ;
158 [label="feedback <= 0.05\ngini = 0.73\nsamples = 139\nvalue = [3.9, 14.71, 0.0, 6.44, 4.54, 14.72, 34.53, 0.0, 0.0]\nclass = 7", fillcolor="#d8c2f7"] ;
157 -> 158 ;
159 [label="slc <= 0.16\ngini = 0.7\nsamples = 124\nvalue = [3.9, 13.07, 0.0, 6.44, 4.54, 6.69, 31.81, 0.0, 0.0]\nclass = 7", fillcolor="#d3baf6"] ;
158 -> 159 ;
160 [label="greatly <= 0.35\ngini = 0.69\nsamples = 118\nvalue = [3.9, 8.99, 0.0, 6.44, 4.54, 6.69, 31.42, 0.0, 0.0]\nclass = 7", fillcolor="#caabf4"] ;
159 -> 160 ;
161 [label="crm <= 0.01\ngini = 0.66\nsamples = 114\nvalue = [3.9, 8.99, 0.0, 6.44, 4.54, 2.68, 31.04, 0.0, 0.0]\nclass = 7", fillcolor="#c6a5f3"] ;
160 -> 161 ;
162 [label="heterogeneous <= 0.1\ngini = 0.62\nsamples = 111\nvalue = [3.9, 8.99, 0.0, 5.91, 4.54, 0.0, 31.04, 0.0, 0.0]\nclass = 7", fillcolor="#c29ff2"] ;
161 -> 162 ;
163 [label="dose <= 0.01\ngini = 0.59\nsamples = 106\nvalue = [3.9, 5.72, 0.0, 5.91, 4.54, 0.0, 30.65, 0.0, 0.0]\nclass = 7", fillcolor="#b992f1"] ;
162 -> 163 ;
164 [label="receive <= 0.07\ngini = 0.72\nsamples = 61\nvalue = [3.25, 4.9, 0.0, 5.37, 4.54, 0.0, 14.35, 0.0, 0.0]\nclass = 7", fillcolor="#d5bdf6"] ;
163 -> 164 ;
165 [label="transfected <= 0.1\ngini = 0.67\nsamples = 55\nvalue = [3.25, 4.9, 0.0, 5.37, 0.0, 0.0, 13.19, 0.0, 0.0]\nclass = 7", fillcolor="#d1b6f5"] ;
164 -> 165 ;
166 [label="information <= 0.03\ngini = 0.59\nsamples = 48\nvalue = [1.3, 4.9, 0.0, 3.22, 0.0, 0.0, 13.19, 0.0, 0.0]\nclass = 7", fillcolor="#c4a2f3"] ;
165 -> 166 ;
167 [label="properly <= 0.11\ngini = 0.46\nsamples = 39\nvalue = [0.65, 1.63, 0.0, 2.68, 0.0, 0.0, 12.03, 0.0, 0.0]\nclass = 7", fillcolor="#ad7eee"] ;
166 -> 167 ;
168 [label="equal <= 0.08\ngini = 0.37\nsamples = 36\nvalue = [0.65, 1.63, 0.0, 1.07, 0.0, 0.0, 12.03, 0.0, 0.0]\nclass = 7", fillcolor="#a069eb"] ;
167 -> 168 ;
169 [label="reversible <= 0.07\ngini = 0.23\nsamples = 33\nvalue = [0.65, 0.0, 0.0, 1.07, 0.0, 0.0, 11.64, 0.0, 0.0]\nclass = 7", fillcolor="#9355e9"] ;
168 -> 169 ;
170 [label="gini = 0.0\nsamples = 30\nvalue = [0.0, 0.0, 0.0, 0.0, 0.0, 0.0, 11.64, 0.0, 0.0]\nclass = 7", fillcolor="#8139e5"] ;
169 -> 170 ;
171 [label="gini = 0.47\nsamples = 3\nvalue = [0.65, 0.0, 0.0, 1.07, 0.0, 0.0, 0.0, 0.0, 0.0]\nclass = 4", fillcolor="#b1f5cd"] ;
169 -> 171 ;
172 [label="gini = 0.31\nsamples = 3\nvalue = [0.0, 1.63, 0.0, 0.0, 0.0, 0.0, 0.39, 0.0, 0.0]\nclass = 2", fillcolor="#e0eb68"] ;
168 -> 172 ;
173 [label="gini = -0.0\nsamples = 3\nvalue = [0.0, 0.0, 0.0, 1.61, 0.0, 0.0, 0.0, 0.0, 0.0]\nclass = 4", fillcolor="#39e581"] ;
167 -> 173 ;
174 [label="panel <= 0.01\ngini = 0.6\nsamples = 9\nvalue = [0.65, 3.27, 0.0, 0.54, 0.0, 0.0, 1.16, 0.0, 0.0]\nclass = 2", fillcolor="#ecf3a1"] ;
166 -> 174 ;
175 [label="gini = 0.19\nsamples = 5\nvalue = [0.0, 3.27, 0.0, 0.0, 0.0, 0.0, 0.39, 0.0, 0.0]\nclass = 2", fillcolor="#dce851"] ;
174 -> 175 ;
176 [label="gini = 0.66\nsamples = 4\nvalue = [0.65, 0.0, 0.0, 0.54, 0.0, 0.0, 0.78, 0.0, 0.0]\nclass = 7", fillcolor="#f3ecfd"] ;
174 -> 176 ;
177 [label="co <= 0.08\ngini = 0.5\nsamples = 7\nvalue = [1.95, 0.0, 0.0, 2.15, 0.0, 0.0, 0.0, 0.0, 0.0]\nclass = 4", fillcolor="#edfdf3"] ;
165 -> 177 ;
178 [label="gini = 0.34\nsamples = 4\nvalue = [1.95, 0.0, 0.0, 0.54, 0.0, 0.0, 0.0, 0.0, 0.0]\nclass = 1", fillcolor="#eca46f"] ;
177 -> 178 ;
179 [label="gini = 0.0\nsamples = 3\nvalue = [0.0, 0.0, 0.0, 1.61, 0.0, 0.0, 0.0, 0.0, 0.0]\nclass = 4", fillcolor="#39e581"] ;
177 -> 179 ;
180 [label="cobimetinib <= 0.43\ngini = 0.32\nsamples = 6\nvalue = [0.0, 0.0, 0.0, 0.0, 4.54, 0.0, 1.16, 0.0, 0.0]\nclass = 5", fillcolor="#6ce1ec"] ;
164 -> 180 ;
181 [label="gini = 0.2\nsamples = 3\nvalue = [0.0, 0.0, 0.0, 0.0, 3.03, 0.0, 0.39, 0.0, 0.0]\nclass = 5", fillcolor="#52dce8"] ;
180 -> 181 ;
182 [label="gini = 0.45\nsamples = 3\nvalue = [0.0, 0.0, 0.0, 0.0, 1.51, 0.0, 0.78, 0.0, 0.0]\nclass = 5", fillcolor="#9eecf2"] ;
180 -> 182 ;
183 [label="shah <= 0.11\ngini = 0.2\nsamples = 45\nvalue = [0.65, 0.82, 0.0, 0.54, 0.0, 0.0, 16.29, 0.0, 0.0]\nclass = 7", fillcolor="#8f50e8"] ;
163 -> 183 ;
184 [label="interpretation <= 0.03\ngini = 0.06\nsamples = 42\nvalue = [0.0, 0.0, 0.0, 0.54, 0.0, 0.0, 15.91, 0.0, 0.0]\nclass = 7", fillcolor="#8540e6"] ;
183 -> 184 ;
185 [label="gini = 0.0\nsamples = 39\nvalue = [0.0, 0.0, 0.0, 0.0, 0.0, 0.0, 15.13, 0.0, 0.0]\nclass = 7", fillcolor="#8139e5"] ;
184 -> 185 ;
186 [label="gini = 0.48\nsamples = 3\nvalue = [0.0, 0.0, 0.0, 0.54, 0.0, 0.0, 0.78, 0.0, 0.0]\nclass = 7", fillcolor="#d8c2f7"] ;
184 -> 186 ;
187 [label="gini = 0.64\nsamples = 3\nvalue = [0.65, 0.82, 0.0, 0.0, 0.0, 0.0, 0.39, 0.0, 0.0]\nclass = 2", fillcolor="#f9fbe4"] ;
183 -> 187 ;
188 [label="gini = 0.19\nsamples = 5\nvalue = [0.0, 3.27, 0.0, 0.0, 0.0, 0.0, 0.39, 0.0, 0.0]\nclass = 2", fillcolor="#dce851"] ;
162 -> 188 ;
189 [label="gini = 0.28\nsamples = 3\nvalue = [0.0, 0.0, 0.0, 0.54, 0.0, 2.68, 0.0, 0.0, 0.0]\nclass = 6", fillcolor="#6183ea"] ;
161 -> 189 ;
190 [label="gini = 0.16\nsamples = 4\nvalue = [0.0, 0.0, 0.0, 0.0, 0.0, 4.01, 0.39, 0.0, 0.0]\nclass = 6", fillcolor="#4c73e8"] ;
160 -> 190 ;
191 [label="grade <= 0.01\ngini = 0.16\nsamples = 6\nvalue = [0.0, 4.09, 0.0, 0.0, 0.0, 0.0, 0.39, 0.0, 0.0]\nclass = 2", fillcolor="#dbe74c"] ;
159 -> 191 ;
192 [label="gini = 0.31\nsamples = 3\nvalue = [0.0, 1.63, 0.0, 0.0, 0.0, 0.0, 0.39, 0.0, 0.0]\nclass = 2", fillcolor="#e0eb68"] ;
191 -> 192 ;
193 [label="gini = -0.0\nsamples = 3\nvalue = [0.0, 2.45, 0.0, 0.0, 0.0, 0.0, 0.0, 0.0, 0.0]\nclass = 2", fillcolor="#d7e539"] ;
191 -> 193 ;
194 [label="endogenous <= 0.06\ngini = 0.51\nsamples = 15\nvalue = [0.0, 1.63, 0.0, 0.0, 0.0, 8.03, 2.72, 0.0, 0.0]\nclass = 6", fillcolor="#92aaf1"] ;
158 -> 194 ;
195 [label="different <= 0.06\ngini = 0.22\nsamples = 9\nvalue = [0.0, 0.0, 0.0, 0.0, 0.0, 8.03, 1.16, 0.0, 0.0]\nclass = 6", fillcolor="#567ae9"] ;
194 -> 195 ;
196 [label="gini = 0.0\nsamples = 4\nvalue = [0.0, 0.0, 0.0, 0.0, 0.0, 5.35, 0.0, 0.0, 0.0]\nclass = 6", fillcolor="#3964e5"] ;
195 -> 196 ;
197 [label="gini = 0.42\nsamples = 5\nvalue = [0.0, 0.0, 0.0, 0.0, 0.0, 2.68, 1.16, 0.0, 0.0]\nclass = 6", fillcolor="#8fa7f0"] ;
195 -> 197 ;
198 [label="enable <= 0.0\ngini = 0.5\nsamples = 6\nvalue = [0.0, 1.63, 0.0, 0.0, 0.0, 0.0, 1.55, 0.0, 0.0]\nclass = 2", fillcolor="#fdfef5"] ;
194 -> 198 ;
199 [label="gini = 0.31\nsamples = 3\nvalue = [0.0, 1.63, 0.0, 0.0, 0.0, 0.0, 0.39, 0.0, 0.0]\nclass = 2", fillcolor="#e0eb68"] ;
198 -> 199 ;
200 [label="gini = -0.0\nsamples = 3\nvalue = [0.0, 0.0, 0.0, 0.0, 0.0, 0.0, 1.16, 0.0, 0.0]\nclass = 7", fillcolor="#8139e5"] ;
198 -> 200 ;
201 [label="protocol <= 0.01\ngini = 0.62\nsamples = 21\nvalue = [3.25, 7.35, 0.0, 1.07, 0.0, 0.0, 1.94, 0.0, 0.0]\nclass = 2", fillcolor="#eff5b1"] ;
157 -> 201 ;
202 [label="group <= 0.01\ngini = 0.27\nsamples = 12\nvalue = [0.0, 7.35, 0.0, 0.54, 0.0, 0.0, 0.78, 0.0, 0.0]\nclass = 2", fillcolor="#dee95a"] ;
201 -> 202 ;
203 [label="gini = 0.0\nsamples = 9\nvalue = [0.0, 7.35, 0.0, 0.0, 0.0, 0.0, 0.0, 0.0, 0.0]\nclass = 2", fillcolor="#d7e539"] ;
202 -> 203 ;
204 [label="gini = 0.48\nsamples = 3\nvalue = [0.0, 0.0, 0.0, 0.54, 0.0, 0.0, 0.78, 0.0, 0.0]\nclass = 7", fillcolor="#d8c2f7"] ;
202 -> 204 ;
205 [label="entire <= 0.06\ngini = 0.5\nsamples = 9\nvalue = [3.25, 0.0, 0.0, 0.54, 0.0, 0.0, 1.16, 0.0, 0.0]\nclass = 1", fillcolor="#f1ba92"] ;
201 -> 205 ;
206 [label="gini = 0.0\nsamples = 5\nvalue = [3.25, 0.0, 0.0, 0.0, 0.0, 0.0, 0.0, 0.0, 0.0]\nclass = 1", fillcolor="#e58139"] ;
205 -> 206 ;
207 [label="gini = 0.43\nsamples = 4\nvalue = [0.0, 0.0, 0.0, 0.54, 0.0, 0.0, 1.16, 0.0, 0.0]\nclass = 7", fillcolor="#bb94f1"] ;
205 -> 207 ;
208 [label="gini = 0.46\nsamples = 3\nvalue = [0.0, 0.0, 4.2, 0.0, 1.51, 0.0, 0.39, 0.0, 0.0]\nclass = 3", fillcolor="#a4f08b"] ;
156 -> 208 ;
209 [label="incomplete <= 0.02\ngini = 0.61\nsamples = 65\nvalue = [0.65, 23.7, 0.0, 0.0, 6.05, 1.34, 11.64, 0.0, 0.0]\nclass = 2", fillcolor="#f0f5b4"] ;
155 -> 209 ;
210 [label="modulators <= 0.17\ngini = 0.49\nsamples = 54\nvalue = [0.0, 23.7, 0.0, 0.0, 3.03, 0.0, 8.92, 0.0, 0.0]\nclass = 2", fillcolor="#e9f192"] ;
209 -> 210 ;
211 [label="curve <= 0.06\ngini = 0.39\nsamples = 51\nvalue = [0.0, 23.7, 0.0, 0.0, 0.0, 0.0, 8.54, 0.0, 0.0]\nclass = 2", fillcolor="#e5ee80"] ;
210 -> 211 ;
212 [label="long <= 0.03\ngini = 0.3\nsamples = 40\nvalue = [0.0, 22.06, 0.0, 0.0, 0.0, 0.0, 5.04, 0.0, 0.0]\nclass = 2", fillcolor="#e0eb66"] ;
211 -> 212 ;
213 [label="eight <= 0.06\ngini = 0.47\nsamples = 21\nvalue = [0.0, 7.35, 0.0, 0.0, 0.0, 0.0, 4.66, 0.0, 0.0]\nclass = 2", fillcolor="#f0f5b6"] ;
212 -> 213 ;
214 [label="bac <= 0.02\ngini = 0.37\nsamples = 15\nvalue = [0.0, 7.35, 0.0, 0.0, 0.0, 0.0, 2.33, 0.0, 0.0]\nclass = 2", fillcolor="#e4ed78"] ;
213 -> 214 ;
215 [label="exist <= 0.05\ngini = 0.17\nsamples = 11\nvalue = [0.0, 7.35, 0.0, 0.0, 0.0, 0.0, 0.78, 0.0, 0.0]\nclass = 2", fillcolor="#dbe84e"] ;
214 -> 215 ;
216 [label="gini = -0.0\nsamples = 8\nvalue = [0.0, 6.54, 0.0, 0.0, 0.0, 0.0, 0.0, 0.0, 0.0]\nclass = 2", fillcolor="#d7e539"] ;
215 -> 216 ;
217 [label="gini = 0.5\nsamples = 3\nvalue = [0.0, 0.82, 0.0, 0.0, 0.0, 0.0, 0.78, 0.0, 0.0]\nclass = 2", fillcolor="#fdfef5"] ;
215 -> 217 ;
218 [label="gini = 0.0\nsamples = 4\nvalue = [0.0, 0.0, 0.0, 0.0, 0.0, 0.0, 1.55, 0.0, 0.0]\nclass = 7", fillcolor="#8139e5"] ;
214 -> 218 ;
219 [label="gini = 0.0\nsamples = 6\nvalue = [0.0, 0.0, 0.0, 0.0, 0.0, 0.0, 2.33, 0.0, 0.0]\nclass = 7", fillcolor="#8139e5"] ;
213 -> 219 ;
220 [label="consent <= 0.34\ngini = 0.05\nsamples = 19\nvalue = [0.0, 14.71, 0.0, 0.0, 0.0, 0.0, 0.39, 0.0, 0.0]\nclass = 2", fillcolor="#d8e63e"] ;
212 -> 220 ;
221 [label="gini = 0.0\nsamples = 16\nvalue = [0.0, 13.07, 0.0, 0.0, 0.0, 0.0, 0.0, 0.0, 0.0]\nclass = 2", fillcolor="#d7e539"] ;
220 -> 221 ;
222 [label="gini = 0.31\nsamples = 3\nvalue = [0.0, 1.63, 0.0, 0.0, 0.0, 0.0, 0.39, 0.0, 0.0]\nclass = 2", fillcolor="#e0eb68"] ;
220 -> 222 ;
223 [label="metastasis <= 0.06\ngini = 0.43\nsamples = 11\nvalue = [0.0, 1.63, 0.0, 0.0, 0.0, 0.0, 3.49, 0.0, 0.0]\nclass = 7", fillcolor="#bc96f1"] ;
211 -> 223 ;
224 [label="gini = 0.0\nsamples = 8\nvalue = [0.0, 0.0, 0.0, 0.0, 0.0, 0.0, 3.1, 0.0, 0.0]\nclass = 7", fillcolor="#8139e5"] ;
223 -> 224 ;
225 [label="gini = 0.31\nsamples = 3\nvalue = [0.0, 1.63, 0.0, 0.0, 0.0, 0.0, 0.39, 0.0, 0.0]\nclass = 2", fillcolor="#e0eb68"] ;
223 -> 225 ;
226 [label="gini = 0.2\nsamples = 3\nvalue = [0.0, 0.0, 0.0, 0.0, 3.03, 0.0, 0.39, 0.0, 0.0]\nclass = 5", fillcolor="#52dce8"] ;
210 -> 226 ;
227 [label="diverse <= 0.0\ngini = 0.69\nsamples = 11\nvalue = [0.65, 0.0, 0.0, 0.0, 3.03, 1.34, 2.72, 0.0, 0.0]\nclass = 5", fillcolor="#f3fdfd"] ;
209 -> 227 ;
228 [label="gini = 0.55\nsamples = 4\nvalue = [0.65, 0.0, 0.0, 0.0, 3.03, 1.34, 0.0, 0.0, 0.0]\nclass = 5", fillcolor="#a4edf3"] ;
227 -> 228 ;
229 [label="gini = 0.0\nsamples = 7\nvalue = [0.0, 0.0, 0.0, 0.0, 0.0, 0.0, 2.72, 0.0, 0.0]\nclass = 7", fillcolor="#8139e5"] ;
227 -> 229 ;
230 [label="concentration <= 0.0\ngini = 0.3\nsamples = 8\nvalue = [0.0, 0.82, 0.0, 0.0, 7.57, 0.0, 0.78, 0.0, 0.0]\nclass = 5", fillcolor="#5fdfea"] ;
154 -> 230 ;
231 [label="gini = 0.21\nsamples = 5\nvalue = [0.0, 0.82, 0.0, 0.0, 6.05, 0.0, 0.0, 0.0, 0.0]\nclass = 5", fillcolor="#54dce9"] ;
230 -> 231 ;
232 [label="gini = 0.45\nsamples = 3\nvalue = [0.0, 0.0, 0.0, 0.0, 1.51, 0.0, 0.78, 0.0, 0.0]\nclass = 5", fillcolor="#9eecf2"] ;
230 -> 232 ;
233 [label="go <= 0.13\ngini = 0.33\nsamples = 6\nvalue = [0.0, 0.82, 8.39, 0.0, 0.0, 0.0, 1.16, 0.0, 0.0]\nclass = 3", fillcolor="#85eb64"] ;
153 -> 233 ;
234 [label="gini = 0.37\nsamples = 3\nvalue = [0.0, 0.82, 4.2, 0.0, 0.0, 0.0, 0.39, 0.0, 0.0]\nclass = 3", fillcolor="#8dec6d"] ;
233 -> 234 ;
235 [label="gini = 0.26\nsamples = 3\nvalue = [0.0, 0.0, 4.2, 0.0, 0.0, 0.0, 0.78, 0.0, 0.0]\nclass = 3", fillcolor="#81ea5e"] ;
233 -> 235 ;
236 [label="gini = 0.0\nsamples = 5\nvalue = [0.0, 0.0, 0.0, 0.0, 0.0, 6.69, 0.0, 0.0, 0.0]\nclass = 6", fillcolor="#3964e5"] ;
152 -> 236 ;
237 [label="gini = 0.26\nsamples = 6\nvalue = [0.0, 0.0, 8.39, 0.0, 0.0, 0.0, 1.55, 0.0, 0.0]\nclass = 3", fillcolor="#81ea5e"] ;
151 -> 237 ;
238 [label="gini = 0.13\nsamples = 3\nvalue = [0.0, 0.0, 0.0, 0.0, 0.0, 0.0, 0.78, 0.0, 10.26]\nclass = 9", fillcolor="#e74870"] ;
6 -> 238 ;
239 [label="introduce <= 0.01\ngini = 0.25\nsamples = 24\nvalue = [1.3, 0.0, 0.0, 0.0, 3.03, 26.76, 0.0, 0.0, 0.0]\nclass = 6", fillcolor="#587ce9"] ;
5 -> 239 ;
240 [label="mean <= 0.08\ngini = 0.1\nsamples = 21\nvalue = [0.0, 0.0, 0.0, 0.0, 1.51, 26.76, 0.0, 0.0, 0.0]\nclass = 6", fillcolor="#446de6"] ;
239 -> 240 ;
241 [label="gini = 0.27\nsamples = 7\nvalue = [0.0, 0.0, 0.0, 0.0, 1.51, 8.03, 0.0, 0.0, 0.0]\nclass = 6", fillcolor="#5e81ea"] ;
240 -> 241 ;
242 [label="gini = 0.0\nsamples = 14\nvalue = [0.0, 0.0, 0.0, 0.0, 0.0, 18.73, 0.0, 0.0, 0.0]\nclass = 6", fillcolor="#3964e5"] ;
240 -> 242 ;
243 [label="gini = 0.5\nsamples = 3\nvalue = [1.3, 0.0, 0.0, 0.0, 1.51, 0.0, 0.0, 0.0, 0.0]\nclass = 5", fillcolor="#e3f9fb"] ;
239 -> 243 ;
244 [label="complicate <= 0.02\ngini = 0.72\nsamples = 83\nvalue = [8.45, 0.82, 37.77, 15.03, 39.36, 6.69, 0.39, 0.0, 0.0]\nclass = 5", fillcolor="#fbfefe"] ;
4 -> 244 ;
245 [label="ala <= 0.09\ngini = 0.7\nsamples = 75\nvalue = [7.15, 0.82, 12.59, 15.03, 39.36, 6.69, 0.39, 0.0, 0.0]\nclass = 5", fillcolor="#b7f0f6"] ;
244 -> 245 ;
246 [label="consortium <= 0.23\ngini = 0.63\nsamples = 57\nvalue = [7.15, 0.82, 8.39, 5.91, 39.36, 6.69, 0.39, 0.0, 0.0]\nclass = 5", fillcolor="#99eaf2"] ;
245 -> 246 ;
247 [label="tolerable <= 0.32\ngini = 0.58\nsamples = 54\nvalue = [6.5, 0.82, 4.2, 5.91, 39.36, 6.69, 0.0, 0.0, 0.0]\nclass = 5", fillcolor="#8de8f0"] ;
246 -> 247 ;
248 [label="localize <= 0.05\ngini = 0.53\nsamples = 51\nvalue = [6.5, 0.82, 4.2, 5.91, 39.36, 2.68, 0.0, 0.0, 0.0]\nclass = 5", fillcolor="#84e6ef"] ;
247 -> 248 ;
249 [label="truncation <= 0.01\ngini = 0.47\nsamples = 44\nvalue = [5.85, 0.0, 4.2, 3.22, 39.36, 2.68, 0.0, 0.0, 0.0]\nclass = 5", fillcolor="#79e4ed"] ;
248 -> 249 ;
250 [label="cluster <= 0.02\ngini = 0.53\nsamples = 16\nvalue = [5.2, 0.0, 0.0, 1.07, 9.08, 0.0, 0.0, 0.0, 0.0]\nclass = 5", fillcolor="#b3f0f5"] ;
249 -> 250 ;
251 [label="gini = 0.47\nsamples = 3\nvalue = [0.65, 0.0, 0.0, 1.07, 0.0, 0.0, 0.0, 0.0, 0.0]\nclass = 4", fillcolor="#b1f5cd"] ;
250 -> 251 ;
252 [label="germ <= 0.09\ngini = 0.44\nsamples = 13\nvalue = [4.55, 0.0, 0.0, 0.0, 9.08, 0.0, 0.0, 0.0, 0.0]\nclass = 5", fillcolor="#9cebf2"] ;
250 -> 252 ;
253 [label="gini = 0.42\nsamples = 8\nvalue = [2.6, 0.0, 0.0, 0.0, 6.05, 0.0, 0.0, 0.0, 0.0]\nclass = 5", fillcolor="#8ee8f0"] ;
252 -> 253 ;
254 [label="gini = 0.48\nsamples = 5\nvalue = [1.95, 0.0, 0.0, 0.0, 3.03, 0.0, 0.0, 0.0, 0.0]\nclass = 5", fillcolor="#b9f1f6"] ;
252 -> 254 ;
255 [label="germline <= 0.03\ngini = 0.41\nsamples = 28\nvalue = [0.65, 0.0, 4.2, 2.15, 30.27, 2.68, 0.0, 0.0, 0.0]\nclass = 5", fillcolor="#6fe2ec"] ;
249 -> 255 ;
256 [label="international <= 0.23\ngini = 0.35\nsamples = 23\nvalue = [0.65, 0.0, 4.2, 0.0, 28.76, 2.68, 0.0, 0.0, 0.0]\nclass = 5", fillcolor="#67e0eb"] ;
255 -> 256 ;
257 [label="gini = 0.0\nsamples = 7\nvalue = [0.0, 0.0, 0.0, 0.0, 10.6, 0.0, 0.0, 0.0, 0.0]\nclass = 5", fillcolor="#39d7e5"] ;
256 -> 257 ;
258 [label="prostate <= 0.01\ngini = 0.46\nsamples = 16\nvalue = [0.65, 0.0, 4.2, 0.0, 18.16, 2.68, 0.0, 0.0, 0.0]\nclass = 5", fillcolor="#7ee5ee"] ;
256 -> 258 ;
259 [label="gini = 0.42\nsamples = 12\nvalue = [0.0, 0.0, 4.2, 0.0, 15.14, 1.34, 0.0, 0.0, 0.0]\nclass = 5", fillcolor="#7ce4ee"] ;
258 -> 259 ;
260 [label="gini = 0.55\nsamples = 4\nvalue = [0.65, 0.0, 0.0, 0.0, 3.03, 1.34, 0.0, 0.0, 0.0]\nclass = 5", fillcolor="#a4edf3"] ;
258 -> 260 ;
261 [label="gini = 0.49\nsamples = 5\nvalue = [0.0, 0.0, 0.0, 2.15, 1.51, 0.0, 0.0, 0.0, 0.0]\nclass = 4", fillcolor="#c5f7da"] ;
255 -> 261 ;
262 [label="less <= 0.2\ngini = 0.52\nsamples = 7\nvalue = [0.65, 0.82, 0.0, 2.68, 0.0, 0.0, 0.0, 0.0, 0.0]\nclass = 4", fillcolor="#90f0b8"] ;
248 -> 262 ;
263 [label="gini = 0.0\nsamples = 4\nvalue = [0.0, 0.0, 0.0, 2.15, 0.0, 0.0, 0.0, 0.0, 0.0]\nclass = 4", fillcolor="#39e581"] ;
262 -> 263 ;
264 [label="gini = 0.66\nsamples = 3\nvalue = [0.65, 0.82, 0.0, 0.54, 0.0, 0.0, 0.0, 0.0, 0.0]\nclass = 2", fillcolor="#fafce7"] ;
262 -> 264 ;
265 [label="gini = 0.0\nsamples = 3\nvalue = [0.0, 0.0, 0.0, 0.0, 0.0, 4.01, 0.0, 0.0, 0.0]\nclass = 6", fillcolor="#3964e5"] ;
247 -> 265 ;
266 [label="gini = 0.34\nsamples = 3\nvalue = [0.65, 0.0, 4.2, 0.0, 0.0, 0.0, 0.39, 0.0, 0.0]\nclass = 3", fillcolor="#87eb66"] ;
246 -> 266 ;
267 [label="raffinose <= 0.24\ngini = 0.43\nsamples = 18\nvalue = [0.0, 0.0, 4.2, 9.13, 0.0, 0.0, 0.0, 0.0, 0.0]\nclass = 4", fillcolor="#94f1bb"] ;
245 -> 267 ;
268 [label="gini = 0.0\nsamples = 7\nvalue = [0.0, 0.0, 0.0, 3.76, 0.0, 0.0, 0.0, 0.0, 0.0]\nclass = 4", fillcolor="#39e581"] ;
267 -> 268 ;
269 [label="gini = 0.49\nsamples = 11\nvalue = [0.0, 0.0, 4.2, 5.37, 0.0, 0.0, 0.0, 0.0, 0.0]\nclass = 4", fillcolor="#d4f9e4"] ;
267 -> 269 ;
270 [label="diverge <= 0.0\ngini = 0.09\nsamples = 8\nvalue = [1.3, 0.0, 25.18, 0.0, 0.0, 0.0, 0.0, 0.0, 0.0]\nclass = 3", fillcolor="#6ce643"] ;
244 -> 270 ;
271 [label="gini = 0.36\nsamples = 3\nvalue = [1.3, 0.0, 4.2, 0.0, 0.0, 0.0, 0.0, 0.0, 0.0]\nclass = 3", fillcolor="#94ed76"] ;
270 -> 271 ;
272 [label="gini = 0.0\nsamples = 5\nvalue = [0.0, 0.0, 20.98, 0.0, 0.0, 0.0, 0.0, 0.0, 0.0]\nclass = 3", fillcolor="#64e539"] ;
270 -> 272 ;
273 [label="gini = 0.08\nsamples = 3\nvalue = [0.0, 0.0, 0.0, 0.0, 0.0, 0.0, 0.78, 18.47, 0.0]\nclass = 8", fillcolor="#e641d9"] ;
3 -> 273 ;
274 [label="structurally <= 0.05\ngini = 0.54\nsamples = 38\nvalue = [2.6, 4.9, 0.0, 5.37, 1.51, 2.68, 4.27, 0.0, 41.04]\nclass = 9", fillcolor="#ef839e"] ;
2 -> 274 ;
275 [label="defective <= 0.04\ngini = 0.8\nsamples = 30\nvalue = [2.6, 4.9, 0.0, 4.29, 1.51, 1.34, 3.88, 0.0, 0.0]\nclass = 2", fillcolor="#fdfef7"] ;
274 -> 275 ;
276 [label="activate <= 0.1\ngini = 0.78\nsamples = 24\nvalue = [2.6, 4.9, 0.0, 1.07, 1.51, 1.34, 3.88, 0.0, 0.0]\nclass = 2", fillcolor="#fbfded"] ;
275 -> 276 ;
277 [label="initial <= 0.04\ngini = 0.74\nsamples = 15\nvalue = [2.6, 4.9, 0.0, 1.07, 1.51, 1.34, 0.39, 0.0, 0.0]\nclass = 2", fillcolor="#f5f9ce"] ;
276 -> 277 ;
278 [label="core <= 0.0\ngini = 0.75\nsamples = 9\nvalue = [2.6, 0.0, 0.0, 1.07, 1.51, 1.34, 0.39, 0.0, 0.0]\nclass = 1", fillcolor="#fae6d7"] ;
277 -> 278 ;
279 [label="gini = 0.68\nsamples = 4\nvalue = [0.0, 0.0, 0.0, 0.54, 1.51, 1.34, 0.39, 0.0, 0.0]\nclass = 5", fillcolor="#f1fcfd"] ;
278 -> 279 ;
280 [label="gini = 0.28\nsamples = 5\nvalue = [2.6, 0.0, 0.0, 0.54, 0.0, 0.0, 0.0, 0.0, 0.0]\nclass = 1", fillcolor="#ea9b62"] ;
278 -> 280 ;
281 [label="gini = 0.0\nsamples = 6\nvalue = [0.0, 4.9, 0.0, 0.0, 0.0, 0.0, 0.0, 0.0, 0.0]\nclass = 2", fillcolor="#d7e539"] ;
277 -> 281 ;
282 [label="gini = 0.0\nsamples = 9\nvalue = [0.0, 0.0, 0.0, 0.0, 0.0, 0.0, 3.49, 0.0, 0.0]\nclass = 7", fillcolor="#8139e5"] ;
276 -> 282 ;
283 [label="gini = -0.0\nsamples = 6\nvalue = [0.0, 0.0, 0.0, 3.22, 0.0, 0.0, 0.0, 0.0, 0.0]\nclass = 4", fillcolor="#39e581"] ;
275 -> 283 ;
284 [label="described <= 0.29\ngini = 0.12\nsamples = 8\nvalue = [0.0, 0.0, 0.0, 1.07, 0.0, 1.34, 0.39, 0.0, 41.04]\nclass = 9", fillcolor="#e7466e"] ;
274 -> 284 ;
285 [label="gini = 0.0\nsamples = 4\nvalue = [0.0, 0.0, 0.0, 0.0, 0.0, 0.0, 0.0, 0.0, 41.04]\nclass = 9", fillcolor="#e53964"] ;
284 -> 285 ;
286 [label="gini = 0.61\nsamples = 4\nvalue = [0.0, 0.0, 0.0, 1.07, 0.0, 1.34, 0.39, 0.0, 0.0]\nclass = 6", fillcolor="#e1e7fb"] ;
284 -> 286 ;
287 [label="gini = -0.0\nsamples = 4\nvalue = [0.0, 0.0, 0.0, 0.0, 0.0, 0.0, 0.0, 0.0, 41.04]\nclass = 9", fillcolor="#e53964"] ;
1 -> 287 ;
288 [label="cocktail <= 0.02\ngini = 0.55\nsamples = 50\nvalue = [2.6, 4.09, 12.59, 6.98, 4.54, 2.68, 6.21, 73.87, 0.0]\nclass = 8", fillcolor="#ef87e7"] ;
0 -> 288 [labeldistance=2.5, labelangle=-45, headlabel="False"] ;
289 [label="stop <= 0.21\ngini = 0.8\nsamples = 45\nvalue = [2.6, 4.09, 12.59, 6.98, 4.54, 1.34, 6.21, 0.0, 0.0]\nclass = 3", fillcolor="#e3fadc"] ;
288 -> 289 ;
290 [label="stratification <= 0.09\ngini = 0.8\nsamples = 42\nvalue = [2.6, 4.09, 0.0, 6.98, 4.54, 1.34, 6.21, 0.0, 0.0]\nclass = 4", fillcolor="#f7fefa"] ;
289 -> 290 ;
291 [label="vitamin <= 0.07\ngini = 0.75\nsamples = 36\nvalue = [2.6, 3.27, 0.0, 6.98, 0.0, 1.34, 5.43, 0.0, 0.0]\nclass = 4", fillcolor="#e9fcf1"] ;
290 -> 291 ;
292 [label="block <= 0.13\ngini = 0.7\nsamples = 33\nvalue = [2.6, 0.82, 0.0, 6.98, 0.0, 1.34, 5.43, 0.0, 0.0]\nclass = 4", fillcolor="#e5fcee"] ;
291 -> 292 ;
293 [label="addition <= 0.13\ngini = 0.68\nsamples = 18\nvalue = [1.3, 0.82, 0.0, 1.07, 0.0, 1.34, 4.66, 0.0, 0.0]\nclass = 7", fillcolor="#caabf4"] ;
292 -> 293 ;
294 [label="lack <= 0.06\ngini = 0.79\nsamples = 8\nvalue = [1.3, 0.82, 0.0, 1.07, 0.0, 1.34, 0.78, 0.0, 0.0]\nclass = 6", fillcolor="#fdfeff"] ;
293 -> 294 ;
295 [label="gini = 0.65\nsamples = 5\nvalue = [1.3, 0.82, 0.0, 0.0, 0.0, 0.0, 0.78, 0.0, 0.0]\nclass = 1", fillcolor="#f9e2d1"] ;
294 -> 295 ;
296 [label="gini = 0.49\nsamples = 3\nvalue = [0.0, 0.0, 0.0, 1.07, 0.0, 1.34, 0.0, 0.0, 0.0]\nclass = 6", fillcolor="#d8e0fa"] ;
294 -> 296 ;
297 [label="gini = 0.0\nsamples = 10\nvalue = [0.0, 0.0, 0.0, 0.0, 0.0, 0.0, 3.88, 0.0, 0.0]\nclass = 7", fillcolor="#8139e5"] ;
293 -> 297 ;
298 [label="institution <= 0.07\ngini = 0.42\nsamples = 15\nvalue = [1.3, 0.0, 0.0, 5.91, 0.0, 0.0, 0.78, 0.0, 0.0]\nclass = 4", fillcolor="#77eda8"] ;
292 -> 298 ;
299 [label="gini = 0.0\nsamples = 11\nvalue = [0.0, 0.0, 0.0, 5.91, 0.0, 0.0, 0.0, 0.0, 0.0]\nclass = 4", fillcolor="#39e581"] ;
298 -> 299 ;
300 [label="gini = 0.47\nsamples = 4\nvalue = [1.3, 0.0, 0.0, 0.0, 0.0, 0.0, 0.78, 0.0, 0.0]\nclass = 1", fillcolor="#f5ccaf"] ;
298 -> 300 ;
301 [label="gini = 0.0\nsamples = 3\nvalue = [0.0, 2.45, 0.0, 0.0, 0.0, 0.0, 0.0, 0.0, 0.0]\nclass = 2", fillcolor="#d7e539"] ;
291 -> 301 ;
302 [label="gini = 0.42\nsamples = 6\nvalue = [0.0, 0.82, 0.0, 0.0, 4.54, 0.0, 0.78, 0.0, 0.0]\nclass = 5", fillcolor="#74e3ed"] ;
290 -> 302 ;
303 [label="gini = -0.0\nsamples = 3\nvalue = [0.0, 0.0, 12.59, 0.0, 0.0, 0.0, 0.0, 0.0, 0.0]\nclass = 3", fillcolor="#64e539"] ;
289 -> 303 ;
304 [label="gini = 0.03\nsamples = 5\nvalue = [0.0, 0.0, 0.0, 0.0, 0.0, 1.34, 0.0, 73.87, 0.0]\nclass = 8", fillcolor="#e53dd8"] ;
288 -> 304 ;
}